{"learner":{"attributes":{"best_iteration":"30","best_score":"0.8739296855105678","scikit_learn":"{\"_estimator_type\": \"classifier\"}"},"feature_names":["amount","amount_log1p","amount_ratio_to_user_avg","amount_zscore_user","hour","hour_sin","hour_cos","dayofweek","is_weekend","time_since_signup_days","seq_ratio","total_txn_by_user","avg_amount_by_user","txns_last_1hr_by_user","merchant_category_freq","merchant_name_freq","city_freq","device_freq","country_freq","prev_amount_1","prev_amount_2","prev_amount_3","prev_amounts_mean_3"],"feature_types":["float","float","float","float","int","float","float","int","int","float","float","int","float","int","int","int","int","int","int","float","float","float","float"],"gradient_booster":{"model":{"gbtree_model_param":{"num_parallel_tree":"1","num_trees":"61"},"iteration_indptr":[0,1,2,3,4,5,6,7,8,9,10,11,12,13,14,15,16,17,18,19,20,21,22,23,24,25,26,27,28,29,30,31,32,33,34,35,36,37,38,39,40,41,42,43,44,45,46,47,48,49,50,51,52,53,54,55,56,57,58,59,60,61],"tree_info":[0,0,0,0,0,0,0,0,0,0,0,0,0,0,0,0,0,0,0,0,0,0,0,0,0,0,0,0,0,0,0,0,0,0,0,0,0,0,0,0,0,0,0,0,0,0,0,0,0,0,0,0,0,0,0,0,0,0,0,0,0],"trees":[{"base_weights":[1.5386162E-2,-3.7500802E-1,1.9604423E0,1.0654353E0,-6.409345E-1,1.2884449E0,9.975702E-2,1.4980677E0,4.9902606E-1,9.973357E-2,-8.0554533E-1,-7.894737E-2,1.456119E0,1.5125406E0,-7.333334E-2,7.314597E-1,-3.2018328E-1,1.512331E0,-1.0131966E0,1.727011E0,7.9628766E-1,1.6924617E0,1.2672586E0,-6.250287E-1,8.1758595E-1,-7.5648606E-1,1.3047522E0,1.6827815E0,9.274461E-1,-4.2442027E-2,-1.1150243E0,9.490151E-2,-6.923077E-2,-7.777778E-2,1.2915472E0,8.703577E-2,4.288569E-2,1.6430642E-2,6.958596E-2,5.766971E-2,-9.3220346E-2,4.58931E-2,-8.415976E-3,-9.59596E-2,-1.5646176E-2,-6.363636E-2,7.7975236E-2,8.4987774E-2,-6.363636E-2,7.6056026E-2,-4.246146E-2,-4.062141E-2,1.1118241E-2,-6.0306806E-2,-3.7893396E-2,-5.555556E-2,7.569062E-2],"categories":[],"categories_nodes":[],"categories_segments":[],"categories_sizes":[],"default_left":[0,0,0,0,0,0,0,0,0,0,0,0,0,0,0,0,0,0,0,0,0,0,0,0,0,0,0,0,0,0,0,0,0,0,0,0,0,0,0,0,0,0,0,0,0,0,0,0,0,0,0,0,0,0,0,0,0],"id":0,"left_children":[1,3,5,7,9,11,-1,13,15,-1,17,-1,19,21,-1,23,25,27,29,31,33,35,37,39,41,43,45,47,49,51,53,-1,-1,-1,55,-1,-1,-1,-1,-1,-1,-1,-1,-1,-1,-1,-1,-1,-1,-1,-1,-1,-1,-1,-1,-1,-1],"loss_changes":[6.8900605E3,2.8954175E3,3.27959E1,2.8793945E2,2.7695386E3,3.9461807E1,0E0,3.0856201E1,9.766178E1,0E0,2.8920898E3,0E0,1.1770554E1,2.718811E1,0E0,4.711232E1,8.165586E1,4.7706665E1,5.448545E2,2.9918762E1,2.9103283E1,1.3830933E1,3.2864502E1,5.58888E1,3.7277695E1,4.5986805E1,1.8040287E1,2.1299072E1,1.2126852E2,1.0709892E2,1.6143506E2,0E0,0E0,0E0,1.22351265E1,0E0,0E0,0E0,0E0,0E0,0E0,0E0,0E0,0E0,0E0,0E0,0E0,0E0,0E0,0E0,0E0,0E0,0E0,0E0,0E0,0E0,0E0],"parents":[2147483647,0,0,1,1,2,2,3,3,4,4,5,5,7,7,8,8,10,10,12,12,13,13,15,15,16,16,17,17,18,18,19,19,20,20,21,21,22,22,23,23,24,24,25,25,26,26,27,27,28,28,29,29,30,30,34,34],"right_children":[2,4,6,8,10,12,-1,14,16,-1,18,-1,20,22,-1,24,26,28,30,32,34,36,38,40,42,44,46,48,50,52,54,-1,-1,-1,56,-1,-1,-1,-1,-1,-1,-1,-1,-1,-1,-1,-1,-1,-1,-1,-1,-1,-1,-1,-1,-1,-1],"split_conditions":[2.0355577E0,1E1,2.4384959E0,7E0,3.2E1,9.175932E0,9.975702E-2,7.2E1,3.6255E1,9.973357E-2,1.4144623E-1,-7.894737E-2,1.716E1,5E0,-7.333334E-2,2.512E3,1.2614102E0,8.604794E-2,1.2E1,5.7E1,7.863802E1,6.071216E1,2.865E3,4.6E1,2.1964905E2,5.6E2,3.306E1,1.5772E2,-1.1840215E0,1.066E1,2.9335418E-1,9.490151E-2,-6.923077E-2,-7.777778E-2,1.4E1,8.703577E-2,4.288569E-2,1.6430642E-2,6.958596E-2,5.766971E-2,-9.3220346E-2,4.58931E-2,-8.415976E-3,-9.59596E-2,-1.5646176E-2,-6.363636E-2,7.7975236E-2,8.4987774E-2,-6.363636E-2,7.6056026E-2,-4.246146E-2,-4.062141E-2,1.1118241E-2,-6.0306806E-2,-3.7893396E-2,-5.555556E-2,7.569062E-2],"split_indices":[2,4,2,4,16,12,0,11,12,0,2,0,21,4,0,18,2,2,4,11,9,12,18,11,9,15,21,21,3,21,3,0,0,0,4,0,0,0,0,0,0,0,0,0,0,0,0,0,0,0,0,0,0,0,0,0,0],"split_type":[0,0,0,0,0,0,0,0,0,0,0,0,0,0,0,0,0,0,0,0,0,0,0,0,0,0,0,0,0,0,0,0,0,0,0,0,0,0,0,0,0,0,0,0,0,0,0,0,0,0,0,0,0,0,0,0,0],"sum_hessian":[9.071798E3,7.5560273E3,1.5157706E3,1.1770885E3,6.3789385E3,7.629549E1,1.4394752E3,6.664208E2,5.106678E2,3.7433258E2,6.004606E3,3.75E0,7.254549E1,6.636708E2,2.75E0,3.9788367E2,1.1278412E2,4.931877E2,5.5114185E3,5.0284115E1,2.2261372E1,3.7944052E2,2.8423022E2,2.3380686E1,3.7450296E2,8.93324E1,2.3451714E1,3.8044052E2,1.127472E2,5.233723E2,4.988046E3,4.8034115E1,2.25E0,3.5E0,1.8761372E1,3.5767914E2,2.1761372E1,3.3701714E1,2.5052852E2,9.630686E0,1.375E1,3.399916E2,3.451137E1,2.375E1,6.55824E1,1.75E0,2.1701714E1,3.7869052E2,1.75E0,8.4616516E1,2.8130686E1,1.3340343E2,3.8996887E2,3.9723186E3,1.0157274E3,1.25E0,1.7511372E1],"tree_param":{"num_deleted":"0","num_feature":"23","num_nodes":"57","size_leaf_vector":"1"}},{"base_weights":[-8.842387E-4,-3.8762277E-1,1.8679155E0,9.319996E-1,-6.08916E-1,1.3604381E0,9.511837E-2,1.4395069E0,5.819143E-1,1.4949858E0,-7.994562E-1,-7.356813E-2,1.4681194E0,1.027579E0,1.560052E0,7.751452E-1,4.259993E-2,1.6020557E0,3.4482932E-1,-6.783485E-2,-8.718037E-1,1.5210761E0,-5.935536E-2,1.1523901E0,-8.179771E-2,-5.7830106E-2,1.5735526E0,-7.2012395E-1,8.627003E-1,6.441998E-1,-1.1427383E0,1.6186966E0,-6.9087185E-2,1.2931757E0,-9.2845835E-2,-8.283363E-1,1.660293E-1,-9.766581E-1,-5.112691E-1,9.2382476E-2,1.1093267E0,-7.5189695E-2,6.221951E-2,8.743664E-2,6.944159E-2,2.9267976E-2,-9.059573E-2,4.5340087E-2,-8.730624E-2,3.858759E-2,-8.325625E-2,-8.021975E-2,1.9470898E-2,8.473497E-2,6.676101E-2,-7.829103E-2,8.138156E-2,-9.426991E-3,-7.272222E-2,1.9363482E-2,-2.3883484E-2,-3.694598E-2,-5.54792E-2,1.4208919E-2,-2.959961E-2,8.468214E-2,-8.738991E-2],"categories":[],"categories_nodes":[],"categories_segments":[],"categories_sizes":[],"default_left":[0,0,0,0,0,0,0,0,0,0,0,0,0,0,0,0,0,0,0,0,0,0,0,0,0,0,0,0,0,0,0,0,0,0,0,0,0,0,0,0,0,0,0,0,0,0,0,0,0,0,0,0,0,0,0,0,0,0,0,0,0,0,0,0,0,0,0],"id":1,"left_children":[1,3,5,7,9,11,-1,13,15,17,19,-1,21,23,25,27,29,31,33,35,37,39,-1,41,-1,-1,43,45,47,49,51,53,-1,55,-1,57,59,61,63,-1,65,-1,-1,-1,-1,-1,-1,-1,-1,-1,-1,-1,-1,-1,-1,-1,-1,-1,-1,-1,-1,-1,-1,-1,-1,-1,-1],"loss_changes":[6.5466353E3,2.1922021E3,2.4565918E1,1.9072687E2,2.5779553E3,3.333847E1,0E0,2.0218872E1,6.663533E1,6.522534E1,3.1195117E2,0E0,1.5726501E1,3.593315E1,1.4218201E1,6.2274475E1,1.2182606E2,2.6486206E1,1.0004439E2,9.467277E1,2.0228418E2,1.1061401E1,0E0,2.5922333E1,0E0,0E0,8.469788E0,3.8966587E1,5.2820343E1,3.465239E1,4.1316727E1,8.210693E0,0E0,3.4366055E1,0E0,4.986972E1,5.8197292E1,1.3046777E2,7.7906006E1,0E0,7.913838E1,0E0,0E0,0E0,0E0,0E0,0E0,0E0,0E0,0E0,0E0,0E0,0E0,0E0,0E0,0E0,0E0,0E0,0E0,0E0,0E0,0E0,0E0,0E0,0E0,0E0,0E0],"parents":[2147483647,0,0,1,1,2,2,3,3,4,4,5,5,7,7,8,8,9,9,10,10,12,12,13,13,14,14,15,15,16,16,17,17,18,18,19,19,20,20,21,21,23,23,26,26,27,27,28,28,29,29,30,30,31,31,33,33,35,35,36,36,37,37,38,38,40,40],"right_children":[2,4,6,8,10,12,-1,14,16,18,20,-1,22,24,26,28,30,32,34,36,38,40,-1,42,-1,-1,44,46,48,50,52,54,-1,56,-1,58,60,62,64,-1,66,-1,-1,-1,-1,-1,-1,-1,-1,-1,-1,-1,-1,-1,-1,-1,-1,-1,-1,-1,-1,-1,-1,-1,-1,-1,-1],"split_conditions":[2.0355577E0,1E1,2.4384959E0,6E0,1.4144623E-1,2.058E1,9.511837E-2,2.892E3,2.281E1,-4.612112E-1,1.2E1,-7.356813E-2,5.918E1,4.98E1,2.93E2,2.512E3,5.032E3,7.86E0,6.0722955E-2,1.047E1,2.422859E-1,1.6940539E0,-5.935536E-2,-1.22431946E2,-8.179771E-2,-5.7830106E-2,4E0,2E0,4.74E1,8.6440676E-1,8.525E1,8.604794E-2,-6.9087185E-2,1.216E1,-9.2845835E-2,7.05E0,1.5255772E2,-3.0453998E-1,2.512E3,9.2382476E-2,3.596E1,-7.5189695E-2,6.221951E-2,8.743664E-2,6.944159E-2,2.9267976E-2,-9.059573E-2,4.5340087E-2,-8.730624E-2,3.858759E-2,-8.325625E-2,-8.021975E-2,1.9470898E-2,8.473497E-2,6.676101E-2,-7.829103E-2,8.138156E-2,-9.426991E-3,-7.272222E-2,1.9363482E-2,-2.3883484E-2,-3.694598E-2,-5.54792E-2,1.4208919E-2,-2.959961E-2,8.468214E-2,-8.738991E-2],"split_indices":[2,4,2,4,2,0,0,18,20,3,4,0,20,19,15,18,17,0,2,20,3,3,0,9,0,0,4,7,19,10,20,2,0,19,0,19,9,3,18,0,0,0,0,0,0,0,0,0,0,0,0,0,0,0,0,0,0,0,0,0,0,0,0,0,0,0,0],"split_type":[0,0,0,0,0,0,0,0,0,0,0,0,0,0,0,0,0,0,0,0,0,0,0,0,0,0,0,0,0,0,0,0,0,0,0,0,0,0,0,0,0,0,0,0,0,0,0,0,0,0,0,0,0,0,0,0,0,0,0,0,0,0,0,0,0,0,0],"sum_hessian":[9.056115E3,7.5039946E3,1.5521207E3,1.0771987E3,6.426796E3,1.012468E2,1.4508739E3,4.384623E2,6.387364E2,5.3313983E2,5.8936562E3,3.245031E0,9.800177E1,1.0141848E2,3.3704382E2,4.699285E2,1.688079E2,4.8737628E2,4.5763523E1,5.305328E2,5.3631235E3,9.65042E1,1.4975694E0,9.742075E1,3.9977226E0,1.2479767E0,3.3579584E2,2.5594805E1,4.443337E2,1.12278984E2,5.6528915E1,4.8512817E2,2.2481003E0,3.227468E1,1.3488843E1,1.2417779E2,4.0635498E2,4.153462E3,1.2096614E3,5.187384E1,4.463036E1,2.747607E0,9.467315E1,1.6800314E2,1.6779271E2,1.1867896E1,1.372691E1,4.375888E2,6.744906E0,1.07033E2,5.24599E0,4.3403717E1,1.31252E1,3.786344E2,1.0649379E2,2.9945893E0,2.928009E1,6.206104E1,6.211675E1,3.027111E2,1.0364388E2,1.4918463E3,2.6616157E3,1.1121596E2,1.0984454E3,3.739073E1,7.2396283E0],"tree_param":{"num_deleted":"0","num_feature":"23","num_nodes":"67","size_leaf_vector":"1"}},{"base_weights":[-5.6781466E-3,-3.6952758E-1,1.7901334E0,9.6751E-2,-4.9189815E-1,-5.9010513E-2,1.7943544E0,1.435523E0,-6.2758744E-1,1.3486063E0,9.094223E-2,8.4226064E-2,1.2272979E0,-7.085389E-1,-2.965967E-1,1.4509327E0,-6.866293E-2,-8.3814554E-2,1.2827016E0,-4.2026523E-1,-8.531056E-1,1.6676037E-2,-4.818314E-1,1.5968618E0,5.669984E-1,7.208555E-2,2.3840323E-2,-3.2444026E-2,-6.8985927E-3,-4.3772466E-2,5.0224073E-2,9.4825085E-3,-2.7927134E-2,-4.0076893E-2,-7.110275E-3,8.36549E-2,3.24607E-2,-7.808119E-2,8.5109144E-2],"categories":[],"categories_nodes":[],"categories_segments":[],"categories_sizes":[],"default_left":[0,0,0,0,0,0,0,0,0,0,0,0,0,0,0,0,0,0,0,0,0,0,0,0,0,0,0,0,0,0,0,0,0,0,0,0,0,0,0],"id":2,"left_children":[1,3,5,-1,7,-1,9,11,13,15,-1,-1,17,19,21,23,-1,-1,25,27,29,31,33,35,37,-1,-1,-1,-1,-1,-1,-1,-1,-1,-1,-1,-1,-1,-1],"loss_changes":[5.839532E3,2.096669E3,2.0995605E1,0E0,1.8466465E3,0E0,1.3964355E1,2.2014221E1,1.7647119E2,2.4884918E1,0E0,0E0,4.343387E1,2.2041309E2,7.530175E1,9.375427E0,0E0,0E0,3.165509E1,1.142247E2,1.4727612E2,4.817308E1,8.842503E1,3.816162E0,3.3694336E1,0E0,0E0,0E0,0E0,0E0,0E0,0E0,0E0,0E0,0E0,0E0,0E0,0E0,0E0],"parents":[2147483647,0,0,1,1,2,2,4,4,6,6,7,7,8,8,9,9,12,12,13,13,14,14,15,15,18,18,19,19,20,20,21,21,22,22,23,23,24,24],"right_children":[2,4,6,-1,8,-1,10,12,14,16,-1,-1,18,20,22,24,-1,-1,26,28,30,32,34,36,38,-1,-1,-1,-1,-1,-1,-1,-1,-1,-1,-1,-1,-1,-1],"split_conditions":[2.0355577E0,3.2E1,1.459E1,9.6751E-2,1.1070045E-1,-5.9010513E-2,2.4384959E0,-1.6392213E0,3.292124E-1,3.59E1,9.094223E-2,8.4226064E-2,1.13E3,-3.2898778E-1,2.0998947E1,2.071E1,-6.866293E-2,-8.3814554E-2,2.36E0,6.123234E-17,1.3477478E0,1.249E3,3.176E3,5.7E1,5.9E1,7.208555E-2,2.3840323E-2,-3.2444026E-2,-6.8985927E-3,-4.3772466E-2,5.0224073E-2,9.4825085E-3,-2.7927134E-2,-4.0076893E-2,-7.110275E-3,8.36549E-2,3.24607E-2,-7.808119E-2,8.5109144E-2],"split_indices":[2,16,0,0,2,0,2,3,3,22,0,0,14,3,9,21,0,0,0,6,2,14,18,11,11,0,0,0,0,0,0,0,0,0,0,0,0,0,0],"split_type":[0,0,0,0,0,0,0,0,0,0,0,0,0,0,0,0,0,0,0,0,0,0,0,0,0,0,0,0,0,0,0,0,0,0,0,0,0,0,0],"sum_hessian":[8.935066E3,7.430389E3,1.5046771E3,3.7390973E2,7.056479E3,1.7398627E0,1.5029373E3,4.6346954E2,6.59301E3,8.119341E1,1.4217439E3,2.0784087E2,2.556287E2,5.29649E3,1.2965192E3,7.8701614E1,2.4917922E0,4.2385626E0,2.5139014E2,1.7703092E3,3.5261814E3,4.8209692E2,8.144223E2,6.685754E1,1.184408E1,2.0930388E2,4.2086246E1,9.774349E2,7.9287427E2,3.4847937E3,4.1387512E1,3.7115665E2,1.10940285E2,4.1881308E2,3.9560922E2,6.117094E1,5.6865983E0,3.988832E0,7.855248E0],"tree_param":{"num_deleted":"0","num_feature":"23","num_nodes":"39","size_leaf_vector":"1"}},{"base_weights":[-1.853341E-2,-3.783888E-1,1.7217094E0,6.168333E-1,-6.659427E-1,-5.733608E-2,1.7257218E0,1.3085076E0,2.3815437E-1,9.247796E-2,-8.2167774E-1,1.3594663E0,8.73695E-2,1.4187864E0,8.846909E-1,9.157983E-1,1.1439225E-1,1.3942714E0,-1.0066099E0,1.4132097E0,-5.46332E-2,-6.759617E-2,1.4337482E0,1.6274223E-1,1.2590618E0,-8.279905E-2,1.0104806E0,-3.4227762E-1,3.4044406E-1,1.4313692E0,2.2937985E-1,-1.0425575E0,2.7322027E-1,-5.345974E-2,1.461199E0,8.245829E-2,6.456191E-2,7.299164E-2,-6.0040254E-2,-7.486888E-2,6.9199264E-2,5.40645E-2,-7.670927E-2,-5.205629E-4,-5.9608437E-2,2.4150392E-2,-7.370622E-3,7.5068586E-2,5.181334E-2,-8.224636E-2,5.3543378E-2,5.9983884E-3,-5.3163048E-2,3.0207118E-2,-9.064513E-2,8.251825E-2,4.0995456E-2],"categories":[],"categories_nodes":[],"categories_segments":[],"categories_sizes":[],"default_left":[0,0,0,0,0,0,0,0,0,0,0,0,0,0,0,0,0,0,0,0,0,0,0,0,0,0,0,0,0,0,0,0,0,0,0,0,0,0,0,0,0,0,0,0,0,0,0,0,0,0,0,0,0,0,0,0,0],"id":3,"left_children":[1,3,5,7,9,-1,11,13,15,-1,17,19,-1,21,23,25,27,29,31,33,-1,-1,35,37,39,-1,41,43,45,47,49,51,53,-1,55,-1,-1,-1,-1,-1,-1,-1,-1,-1,-1,-1,-1,-1,-1,-1,-1,-1,-1,-1,-1,-1,-1],"loss_changes":[5.572272E3,2.1105034E3,1.9526855E1,4.3274023E2,2.2427112E3,0E0,9.7109375E0,2.6073303E1,8.960247E1,0E0,2.2094507E3,1.3348587E1,0E0,2.1104187E1,3.3143845E1,4.1861725E1,9.3602356E1,1.7625122E1,2.2910596E2,1.2056091E1,0E0,0E0,1.2002319E1,7.830483E1,3.000032E1,0E0,3.0453308E1,8.470018E1,4.223645E1,9.574829E0,2.3862972E1,1.16569824E2,9.5447685E1,0E0,9.181381E0,0E0,0E0,0E0,0E0,0E0,0E0,0E0,0E0,0E0,0E0,0E0,0E0,0E0,0E0,0E0,0E0,0E0,0E0,0E0,0E0,0E0,0E0],"parents":[2147483647,0,0,1,1,2,2,3,3,4,4,6,6,7,7,8,8,10,10,11,11,13,13,14,14,15,15,16,16,17,17,18,18,19,19,22,22,23,23,24,24,26,26,27,27,28,28,29,29,30,30,31,31,32,32,34,34],"right_children":[2,4,6,8,10,-1,12,14,16,-1,18,20,-1,22,24,26,28,30,32,34,-1,-1,36,38,40,-1,42,44,46,48,50,52,54,-1,56,-1,-1,-1,-1,-1,-1,-1,-1,-1,-1,-1,-1,-1,-1,-1,-1,-1,-1,-1,-1,-1,-1],"split_conditions":[2.0355577E0,1.2E1,1.459E1,7E0,3.2E1,-5.733608E-2,2.4384959E0,6E0,-7.275875E-1,9.247796E-2,1.1070045E-1,4.6123333E1,8.73695E-2,2.93E2,1.211E3,9.4339624E-2,8.2374185E-1,5.09E0,1.6915734E0,2.058E1,-5.46332E-2,-6.759617E-2,4.8E1,1.2113704E1,2.865E3,-8.279905E-2,7.655914E-1,2.349E1,6.08E2,-5.7390136E-1,2E1,-1.6392213E0,1.243E3,-5.345974E-2,5.254237E-1,8.245829E-2,6.456191E-2,7.299164E-2,-6.0040254E-2,-7.486888E-2,6.9199264E-2,5.40645E-2,-7.670927E-2,-5.205629E-4,-5.9608437E-2,2.4150392E-2,-7.370622E-3,7.5068586E-2,5.181334E-2,-8.224636E-2,5.3543378E-2,5.9983884E-3,-5.3163048E-2,3.0207118E-2,-9.064513E-2,8.251825E-2,4.0995456E-2],"split_indices":[2,4,0,4,16,0,2,4,3,0,2,22,0,15,14,10,2,0,2,0,0,0,16,12,18,0,2,0,15,3,4,3,14,0,10,0,0,0,0,0,0,0,0,0,0,0,0,0,0,0,0,0,0,0,0,0,0],"split_type":[0,0,0,0,0,0,0,0,0,0,0,0,0,0,0,0,0,0,0,0,0,0,0,0,0,0,0,0,0,0,0,0,0,0,0,0,0,0,0,0,0,0,0,0,0,0,0,0,0,0,0,0,0,0,0,0,0],"sum_hessian":[8.896002E3,7.3723057E3,1.5236965E3,1.6523586E3,5.719947E3,1.7305698E0,1.521966E3,5.837173E2,1.0686414E3,3.3284296E2,5.387104E3,8.8572655E1,1.4333933E3,4.613297E2,1.2238755E2,1.6404327E2,9.045981E2,4.1444763E2,4.9726562E3,8.708763E1,1.4850214E0,1.9978622E0,4.5933185E2,4.2282787E1,8.010477E1,5.239415E0,1.5880385E2,2.993457E2,6.052524E2,4.014346E2,1.3013052E1,4.836982E3,1.3567448E2,1.248056E0,8.583958E1,1.7867522E2,2.8065665E2,2.1633268E1,2.0649519E1,2.996679E0,7.7108086E1,1.5506403E2,3.7398243E0,2.160101E2,8.3335594E1,4.683878E2,1.3686458E2,3.386365E2,6.2798088E1,3.736248E0,9.276804E0,8.455065E1,4.752431E3,1.1771217E2,1.7962307E1,6.5071465E1,2.0768112E1],"tree_param":{"num_deleted":"0","num_feature":"23","num_nodes":"57","size_leaf_vector":"1"}},{"base_weights":[-1.5639052E-2,-3.4956512E-1,1.656983E0,8.6961454E-1,-5.575057E-1,-6.597671E-2,1.6628821E0,1.2653618E0,3.8480997E-1,8.882126E-2,-6.953293E-1,1.3414494E0,8.4218964E-2,1.4783924E0,9.9398124E-1,6.219531E-1,-2.1991417E-1,1.2295823E0,-8.497269E-1,-6.6295855E-2,1.4187658E0,1.5105895E0,2.7116062E-2,-8.6584374E-2,1.0507796E0,-1.0967411E0,7.2017014E-1,7.363506E-1,-7.158759E-1,1.2781627E0,-8.299367E-2,-1.2061401E-1,-9.233536E-1,1.4697163E0,-5.3311516E-2,7.650482E-2,-6.526128E-2,7.279369E-2,-8.180107E-2,6.1157435E-2,8.095477E-3,3.5590153E-2,-9.325462E-2,6.3859746E-2,2.546393E-2,-7.849286E-2,5.151237E-2,-9.251214E-2,-1.4613325E-2,-7.6243356E-2,6.489018E-2,-3.9006602E-2,4.9840673E-3,-4.757608E-2,6.98649E-3,3.3284504E-2,7.54236E-2],"categories":[],"categories_nodes":[],"categories_segments":[],"categories_sizes":[],"default_left":[0,0,0,0,0,0,0,0,0,0,0,0,0,0,0,0,0,0,0,0,0,0,0,0,0,0,0,0,0,0,0,0,0,0,0,0,0,0,0,0,0,0,0,0,0,0,0,0,0,0,0,0,0,0,0,0,0],"id":4,"left_children":[1,3,5,7,9,-1,11,13,15,-1,17,19,-1,21,23,25,27,29,31,-1,33,35,37,-1,39,41,43,45,47,49,-1,51,53,55,-1,-1,-1,-1,-1,-1,-1,-1,-1,-1,-1,-1,-1,-1,-1,-1,-1,-1,-1,-1,-1,-1,-1],"loss_changes":[4.922088E3,1.8628044E3,2.7945557E1,2.0494568E2,2.0201028E3,0E0,7.8569336E0,3.2586487E1,6.935338E1,0E0,1.7625471E3,2.1822083E1,0E0,1.5283936E1,4.2398285E1,5.9358932E1,6.53591E1,6.3956482E1,2.9446704E2,0E0,1.3525711E1,1.9619629E1,2.1715788E1,0E0,3.9236816E1,2.7941408E1,3.7975555E1,3.3593903E1,4.2956833E1,2.5861023E1,0E0,7.336942E1,1.4937793E2,1.8929291E0,0E0,0E0,0E0,0E0,0E0,0E0,0E0,0E0,0E0,0E0,0E0,0E0,0E0,0E0,0E0,0E0,0E0,0E0,0E0,0E0,0E0,0E0,0E0],"parents":[2147483647,0,0,1,1,2,2,3,3,4,4,6,6,7,7,8,8,10,10,11,11,13,13,14,14,15,15,16,16,17,17,18,18,20,20,21,21,22,22,24,24,25,25,26,26,27,27,28,28,29,29,31,31,32,32,33,33],"right_children":[2,4,6,8,10,-1,12,14,16,-1,18,20,-1,22,24,26,28,30,32,-1,34,36,38,-1,40,42,44,46,48,50,-1,52,54,56,-1,-1,-1,-1,-1,-1,-1,-1,-1,-1,-1,-1,-1,-1,-1,-1,-1,-1,-1,-1,-1,-1,-1],"split_conditions":[2.0355577E0,1E1,2.867899E0,7E0,3.2E1,-6.597671E-2,2.4384959E0,5E0,2.281E1,8.882126E-2,1.4144623E-1,7.52E0,8.4218964E-2,6.8276665E1,3.73E0,2.3E0,-4.2656928E-1,2.0347056E0,1.2E1,-6.6295855E-2,4.6123333E1,7.7073E1,1E0,-8.6584374E-2,3.84331E1,-1.3866705E2,3.96E2,3.104E3,3.3543335E1,-1.0937935E2,-8.299367E-2,1.066E1,1.6915734E0,1.3E1,-5.3311516E-2,7.650482E-2,-6.526128E-2,7.279369E-2,-8.180107E-2,6.1157435E-2,8.095477E-3,3.5590153E-2,-9.325462E-2,6.3859746E-2,2.546393E-2,-7.849286E-2,5.151237E-2,-9.251214E-2,-1.4613325E-2,-7.6243356E-2,6.489018E-2,-3.9006602E-2,4.9840673E-3,-4.757608E-2,6.98649E-3,3.3284504E-2,7.54236E-2],"split_indices":[2,4,1,4,16,0,2,4,20,0,2,19,0,22,19,20,3,1,4,0,22,12,4,0,12,9,15,18,22,9,0,21,2,4,0,0,0,0,0,0,0,0,0,0,0,0,0,0,0,0,0,0,0,0,0,0,0],"split_type":[0,0,0,0,0,0,0,0,0,0,0,0,0,0,0,0,0,0,0,0,0,0,0,0,0,0,0,0,0,0,0,0,0,0,0,0,0,0,0,0,0,0,0,0,0,0,0,0,0,0,0,0,0,0,0,0,0],"sum_hessian":[8.810505E3,7.3449365E3,1.4655687E3,1.069741E3,6.2751953E3,2.4583797E0,1.4631104E3,5.8807983E2,4.816611E2,3.492382E2,5.9259575E3,9.569198E1,1.3674185E3,3.2696692E2,2.6111295E2,3.459629E2,1.356982E2,4.3951062E2,5.486447E3,2.2406795E0,9.3451294E1,3.1983047E2,7.1364284E0,4.728147E0,2.563848E2,1.8152191E1,3.278107E2,4.617787E1,8.952033E1,4.3279175E2,6.7188787E0,5.034551E2,4.9829917E3,9.197409E1,1.4772038E0,3.1808353E2,1.7469525E0,3.9057355E0,3.2306929E0,2.1442715E2,4.1957645E1,5.434372E0,1.271782E1,8.863756E1,2.3917316E2,4.728876E0,4.1448997E1,2.3424633E1,6.6095695E1,2.4782226E0,4.303135E2,1.2542317E2,3.7803195E2,4.85447E3,1.2852126E2,5.065325E0,8.690877E1],"tree_param":{"num_deleted":"0","num_feature":"23","num_nodes":"57","size_leaf_vector":"1"}},{"base_weights":[-7.6356605E-3,-3.309122E-1,1.6009463E0,6.2141496E-1,-6.1610824E-1,1.1405398E0,8.15079E-2,1.33208E0,3.5987422E-1,1.2326247E0,-7.7561694E-1,-7.4178934E-2,1.2678611E0,1.3508991E0,-7.477758E-2,1.0173641E0,2.7019784E-1,1.3838905E0,6.008639E-1,-8.8488615E-1,-5.8905745E-1,-6.0167488E-2,1.3385311E0,1.3602186E0,-5.6254655E-2,-7.121011E-2,1.0770847E0,6.0389245E-1,4.6333045E-2,-6.9034316E-2,1.4009732E0,1.3446003E0,-6.351028E-1,-6.8672824E-1,-1.037451E0,-7.0505214E-1,1.5224845E-3,1.3926843E0,-5.2729767E-2,7.7571675E-2,6.124453E-2,2.7429426E-4,5.974068E-2,-8.997248E-2,3.3693206E-2,1.4558936E-2,-2.1680288E-2,7.0662566E-2,-6.013636E-2,7.419217E-2,3.2377087E-2,-6.748708E-2,6.3289635E-2,7.974383E-3,-3.678144E-2,1.2561607E-2,-5.374046E-2,9.1724604E-2,-3.6309388E-2,-1.7450511E-2,3.228715E-2,8.221559E-2,5.1817913E-2],"categories":[],"categories_nodes":[],"categories_segments":[],"categories_sizes":[],"default_left":[0,0,0,0,0,0,0,0,0,0,0,0,0,0,0,0,0,0,0,0,0,0,0,0,0,0,0,0,0,0,0,0,0,0,0,0,0,0,0,0,0,0,0,0,0,0,0,0,0,0,0,0,0,0,0,0,0,0,0,0,0,0,0],"id":5,"left_children":[1,3,5,7,9,11,-1,13,15,17,19,-1,21,23,-1,25,27,29,31,33,35,-1,37,39,-1,-1,41,43,45,-1,47,49,51,53,55,57,59,61,-1,-1,-1,-1,-1,-1,-1,-1,-1,-1,-1,-1,-1,-1,-1,-1,-1,-1,-1,-1,-1,-1,-1,-1,-1],"loss_changes":[4.6009937E3,2.0013069E3,1.8053467E1,3.1518292E2,1.6729353E3,3.2506577E1,0E0,2.6312561E1,7.3002716E1,4.22417E1,1.0589209E2,0E0,1.6972397E1,1.2006897E1,0E0,2.323114E1,8.177166E1,1.9072144E1,8.2517914E1,9.875049E1,1.3229163E2,0E0,1.2612564E1,9.815796E0,0E0,0E0,1.838974E1,7.513347E1,7.726452E1,0E0,1.3245361E1,4.453659E0,4.7969788E1,5.9461487E1,8.9666016E1,8.796912E1,7.204118E1,5.873886E0,0E0,0E0,0E0,0E0,0E0,0E0,0E0,0E0,0E0,0E0,0E0,0E0,0E0,0E0,0E0,0E0,0E0,0E0,0E0,0E0,0E0,0E0,0E0,0E0,0E0],"parents":[2147483647,0,0,1,1,2,2,3,3,4,4,5,5,7,7,8,8,9,9,10,10,12,12,13,13,15,15,16,16,17,17,18,18,19,19,20,20,22,22,23,23,26,26,27,27,28,28,30,30,31,31,32,32,33,33,34,34,35,35,36,36,37,37],"right_children":[2,4,6,8,10,12,-1,14,16,18,20,-1,22,24,-1,26,28,30,32,34,36,-1,38,40,-1,-1,42,44,46,-1,48,50,52,54,56,58,60,62,-1,-1,-1,-1,-1,-1,-1,-1,-1,-1,-1,-1,-1,-1,-1,-1,-1,-1,-1,-1,-1,-1,-1,-1,-1],"split_conditions":[2.0355577E0,1.2E1,2.4384959E0,6E0,1.4144623E-1,1.3E1,8.15079E-2,9.834E1,-8.598781E-1,8.604794E-2,9.786866E-1,-7.4178934E-2,2.058E1,7.2E1,-7.477758E-2,9.4339624E-2,4.953E3,1.99E0,-1.6392213E0,-3.0453998E-1,5.2763332E1,-6.0167488E-2,4.6123333E1,4.8E1,-5.6254655E-2,-7.121011E-2,4.3E1,2.72E0,1.09971886E2,-6.9034316E-2,1.6265E2,1.2787571E2,9.1803277E-1,-1.6392213E0,2.79E2,-8.716094E-2,7.54717E-1,1.5767882E0,-5.2729767E-2,7.7571675E-2,6.124453E-2,2.7429426E-4,5.974068E-2,-8.997248E-2,3.3693206E-2,1.4558936E-2,-2.1680288E-2,7.0662566E-2,-6.013636E-2,7.419217E-2,3.2377087E-2,-6.748708E-2,6.3289635E-2,7.974383E-3,-3.678144E-2,1.2561607E-2,-5.374046E-2,9.1724604E-2,-3.6309388E-2,-1.7450511E-2,3.228715E-2,8.221559E-2,5.1817913E-2],"split_indices":[2,4,2,4,2,4,0,21,3,2,2,0,0,11,0,10,17,19,3,3,22,0,22,11,0,0,11,21,9,0,22,9,10,3,15,3,10,3,0,0,0,0,0,0,0,0,0,0,0,0,0,0,0,0,0,0,0,0,0,0,0,0,0],"split_type":[0,0,0,0,0,0,0,0,0,0,0,0,0,0,0,0,0,0,0,0,0,0,0,0,0,0,0,0,0,0,0,0,0,0,0,0,0,0,0,0,0,0,0,0,0,0,0,0,0,0,0,0,0,0,0,0,0,0,0,0,0,0,0],"sum_hessian":[8.845759E3,7.3661743E3,1.479585E3,1.6973156E3,5.668859E3,9.0664215E1,1.3889208E3,4.5550702E2,1.2418085E3,4.497265E2,5.2191323E3,3.7025132E0,8.69617E1,4.5301428E2,2.4927468E0,1.4780269E2,1.0940059E3,3.618873E2,8.783919E1,3.2889998E3,1.9301326E3,1.9721236E0,8.498958E1,4.5176447E2,1.2498047E0,2.983413E0,1.4481929E2,4.3857098E2,6.554348E2,1.7322085E0,3.601551E2,5.4784817E1,3.305437E1,1.4331125E3,1.8558871E3,1.6131107E3,3.1702185E2,8.351774E1,1.4718435E0,1.8288663E2,2.6887784E2,1.4438941E1,1.3038034E2,1.1708215E1,4.2686276E2,4.342772E2,2.2115762E2,3.5891977E2,1.2353138E0,4.4722435E1,1.0062379E1,2.4233692E1,8.820678E0,7.816791E1,1.3549447E3,5.2124134E1,1.803763E3,1.2606285E1,1.6005044E3,2.0560597E2,1.1141589E2,4.683181E1,3.668593E1],"tree_param":{"num_deleted":"0","num_feature":"23","num_nodes":"63","size_leaf_vector":"1"}},{"base_weights":[-6.563027E-3,-3.2097688E-1,1.5537574E0,8.344205E-1,-5.2597445E-1,-5.4883808E-2,1.5580177E0,1.2870969E0,4.8653734E-1,1.1373069E0,-6.53007E-1,1.2162815E0,7.89914E-2,1.2975013E0,-5.941355E-2,6.5976393E-1,-1.6184296E-1,1.2570215E0,7.5429725E-3,-7.003185E-2,-7.1021855E-1,1.273503E0,-5.645311E-2,1.5082741E0,1.175507E0,-2.9482716E-1,7.8161144E-1,4.914399E-1,-8.993286E-1,1.2722162E0,-5.8885407E-2,-8.908477E-2,6.7310023E-1,-4.7117323E-1,2.7383816E-1,-8.1160194E-1,-4.057224E-1,-5.720032E-2,1.3269594E0,3.633923E-2,7.759967E-2,-6.693455E-2,5.972418E-2,3.9882712E-2,-9.237211E-2,2.4076583E-2,5.38429E-2,-3.0694773E-2,5.3607654E-2,4.6249153E-3,-9.131552E-2,-5.7853736E-2,6.414535E-2,-8.169205E-2,5.048957E-2,1.1379189E-2,-4.122742E-2,5.3752866E-2,3.424588E-3,-2.8846014E-2,-4.6696395E-2,-1.3975859E-2,-4.2026464E-2,-5.033054E-2,6.857299E-2],"categories":[],"categories_nodes":[],"categories_segments":[],"categories_sizes":[],"default_left":[0,0,0,0,0,0,0,0,0,0,0,0,0,0,0,0,0,0,0,0,0,0,0,0,0,0,0,0,0,0,0,0,0,0,0,0,0,0,0,0,0,0,0,0,0,0,0,0,0,0,0,0,0,0,0,0,0,0,0,0,0,0,0,0,0],"id":6,"left_children":[1,3,5,7,9,-1,11,13,15,17,19,21,-1,23,-1,25,27,29,31,33,35,37,-1,39,41,43,45,47,49,51,-1,-1,53,55,57,59,61,-1,63,-1,-1,-1,-1,-1,-1,-1,-1,-1,-1,-1,-1,-1,-1,-1,-1,-1,-1,-1,-1,-1,-1,-1,-1,-1,-1],"loss_changes":[4.2570605E3,1.7110352E3,1.814917E1,1.7081952E2,1.2968997E3,0E0,8.910889E0,1.371051E1,6.942967E1,5.891034E1,1.9005664E2,1.37226715E1,0E0,1.0337524E1,0E0,5.690753E1,6.352453E1,1.6070312E1,5.2102097E1,7.054579E1,1.5990088E2,1.3126678E1,0E0,4.650635E0,1.604834E1,9.6262764E1,3.7790222E1,4.56398E1,5.7040604E1,1.1663269E1,0E0,0E0,2.6413256E1,5.8458965E1,4.5253204E1,1.1121655E2,7.101903E1,0E0,1.0555038E1,0E0,0E0,0E0,0E0,0E0,0E0,0E0,0E0,0E0,0E0,0E0,0E0,0E0,0E0,0E0,0E0,0E0,0E0,0E0,0E0,0E0,0E0,0E0,0E0,0E0,0E0],"parents":[2147483647,0,0,1,1,2,2,3,3,4,4,6,6,7,7,8,8,9,9,10,10,11,11,13,13,15,15,16,16,17,17,18,18,19,19,20,20,21,21,23,23,24,24,25,25,26,26,27,27,28,28,29,29,32,32,33,33,34,34,35,35,36,36,38,38],"right_children":[2,4,6,8,10,-1,12,14,16,18,20,22,-1,24,-1,26,28,30,32,34,36,38,-1,40,42,44,46,48,50,52,-1,-1,54,56,58,60,62,-1,64,-1,-1,-1,-1,-1,-1,-1,-1,-1,-1,-1,-1,-1,-1,-1,-1,-1,-1,-1,-1,-1,-1,-1,-1,-1,-1],"split_conditions":[2.0355577E0,1E1,2.7466297E0,6E0,1.4144623E-1,-5.4883808E-2,2.4384959E0,7.2E1,3.84331E1,-4.612112E-1,1.2E1,5.918E1,7.89914E-2,4.8E1,-5.941355E-2,2.865E3,4E-1,2.1815467E0,5.714286E-1,1.938E1,1.8838306E-1,3.75E2,-5.645311E-2,2.512E3,3.05E2,2E0,1.6117674E1,-8.366677E-2,5E1,-1.159066E2,-5.8885407E-2,-8.908477E-2,-7.0710677E-1,6.5006363E-1,2.3563208E1,-3.2898778E-1,1.249E3,-5.720032E-2,-9.659258E-1,3.633923E-2,7.759967E-2,-6.693455E-2,5.972418E-2,3.9882712E-2,-9.237211E-2,2.4076583E-2,5.38429E-2,-3.0694773E-2,5.3607654E-2,4.6249153E-3,-9.131552E-2,-5.7853736E-2,6.414535E-2,-8.169205E-2,5.048957E-2,1.1379189E-2,-4.122742E-2,5.3752866E-2,3.424588E-3,-2.8846014E-2,-4.6696395E-2,-1.3975859E-2,-4.2026464E-2,-5.033054E-2,6.857299E-2],"split_indices":[2,4,1,4,2,0,2,11,12,3,4,20,0,11,0,18,10,1,10,20,3,15,0,18,15,7,12,3,11,9,0,0,5,2,12,3,14,0,6,0,0,0,0,0,0,0,0,0,0,0,0,0,0,0,0,0,0,0,0,0,0,0,0,0,0],"split_type":[0,0,0,0,0,0,0,0,0,0,0,0,0,0,0,0,0,0,0,0,0,0,0,0,0,0,0,0,0,0,0,0,0,0,0,0,0,0,0,0,0,0,0,0,0,0,0,0,0,0,0,0,0,0,0,0,0,0,0,0,0,0,0,0,0],"sum_hessian":[8.675478E3,7.221164E3,1.4543132E3,1.0876927E3,6.133471E3,1.9213002E0,1.4523918E3,4.714838E2,6.16209E2,4.3463873E2,5.6988325E3,9.053848E1,1.3618534E3,4.699842E2,1.4996085E0,4.8627435E2,1.2993462E2,3.9289343E2,4.17453E1,5.0948657E2,5.1893457E3,8.882827E1,1.710213E0,1.6813303E2,3.0185117E2,5.4883133E1,4.3139124E2,6.907761E1,6.085701E1,3.9093118E2,1.9622531E0,1.0863531E1,3.088177E1,2.3498949E2,2.7449707E2,3.8918657E3,1.2974802E3,1.4803486E0,8.734792E1,9.841318E0,1.5829172E2,1.740265E0,3.001109E2,3.2500645E1,2.2382488E1,2.1524922E2,2.16142E2,2.3772207E1,4.53054E1,2.9835087E1,3.1021923E1,1.2430311E0,3.8968814E2,3.4424107E0,2.7439358E1,7.904447E1,1.55945E2,5.5135284E1,2.1936179E2,1.3354764E3,2.5563892E3,1.00687244E3,2.9060785E2,1.2299515E0,8.6117966E1],"tree_param":{"num_deleted":"0","num_feature":"23","num_nodes":"65","size_leaf_vector":"1"}},{"base_weights":[2.0321423E-2,-2.7402833E-1,1.5098445E0,8.3549625E-1,-4.7134617E-1,1.0874835E0,7.6811634E-2,1.1634753E0,4.6066442E-1,8.799117E-2,-5.991347E-1,-6.6124715E-2,1.1919111E0,1.3324167E0,9.399174E-1,6.2853956E-1,-1.7272878E-1,1.2427299E0,-7.558979E-1,1.2580638E0,-5.5283852E-2,1.3663244E0,-1.0554262E-1,-3.610139E-1,1.0871617E0,-3.716466E-1,7.9466504E-1,2.3981678E-1,-1.3236263E0,-6.807979E-2,1.2569519E0,-4.0733438E-2,-8.3192295E-1,1.4482415E0,8.5337114E-1,6.985323E-2,3.530292E-2,7.085268E-2,-8.266812E-2,7.673867E-2,-9.732292E-2,-7.4222766E-2,5.593154E-2,-6.7435764E-2,3.4600243E-2,4.1961398E-2,-8.092387E-2,-4.319653E-2,3.9044037E-2,-9.164026E-2,1.3214888E-2,6.445145E-2,6.9855168E-3,-3.1418245E-2,5.5511957E-3,-4.362397E-2,-5.978757E-3,2.7851775E-2,7.6252766E-2,-7.695011E-2,5.6622393E-2],"categories":[],"categories_nodes":[],"categories_segments":[],"categories_sizes":[],"default_left":[0,0,0,0,0,0,0,0,0,0,0,0,0,0,0,0,0,0,0,0,0,0,0,0,0,0,0,0,0,0,0,0,0,0,0,0,0,0,0,0,0,0,0,0,0,0,0,0,0,0,0,0,0,0,0,0,0,0,0,0,0],"id":7,"left_children":[1,3,5,7,9,11,-1,13,15,-1,17,-1,19,21,23,25,27,29,31,33,-1,35,37,39,41,43,45,47,49,-1,51,53,55,57,59,-1,-1,-1,-1,-1,-1,-1,-1,-1,-1,-1,-1,-1,-1,-1,-1,-1,-1,-1,-1,-1,-1,-1,-1,-1,-1],"loss_changes":[3.850341E3,1.6057753E3,1.4479492E1,1.3562183E2,1.7762971E3,2.3882614E1,0E0,2.1032043E1,5.5242096E1,0E0,1.701541E3,0E0,1.4383034E1,1.6413391E1,4.969081E1,6.8434494E1,5.2268883E1,1.8836243E1,2.9511377E2,5.1947327E0,0E0,5.6314087E0,2.2646324E1,8.3893486E1,2.039032E1,6.23466E1,3.921086E1,4.9282104E1,2.3952652E1,0E0,1.6318054E1,4.6680065E1,1.4165381E2,2.9435272E0,2.1202665E1,0E0,0E0,0E0,0E0,0E0,0E0,0E0,0E0,0E0,0E0,0E0,0E0,0E0,0E0,0E0,0E0,0E0,0E0,0E0,0E0,0E0,0E0,0E0,0E0,0E0,0E0],"parents":[2147483647,0,0,1,1,2,2,3,3,4,4,5,5,7,7,8,8,10,10,12,12,13,13,14,14,15,15,16,16,17,17,18,18,19,19,21,21,22,22,23,23,24,24,25,25,26,26,27,27,28,28,30,30,31,31,32,32,33,33,34,34],"right_children":[2,4,6,8,10,12,-1,14,16,-1,18,-1,20,22,24,26,28,30,32,34,-1,36,38,40,42,44,46,48,50,-1,52,54,56,58,60,-1,-1,-1,-1,-1,-1,-1,-1,-1,-1,-1,-1,-1,-1,-1,-1,-1,-1,-1,-1,-1,-1,-1,-1,-1,-1],"split_conditions":[2.0355577E0,1E1,2.4384959E0,7E0,3.2E1,2.058E1,7.6811634E-2,5E0,3.312E3,8.799117E-2,1.1070045E-1,-6.6124715E-2,4.6123333E1,6.959333E1,2.865E3,2.865E3,2.932E1,-1.1938641E2,1.2E1,1.6056667E1,-5.5283852E-2,5.9742184E1,1E0,8.17661E0,4.556667E0,2.3154773E-1,8.8763336E1,3.367E3,6E0,-6.807979E-2,5.09E0,2.7272728E-1,1.5141422E0,2E0,5.1E1,6.985323E-2,3.530292E-2,7.085268E-2,-8.266812E-2,7.673867E-2,-9.732292E-2,-7.4222766E-2,5.593154E-2,-6.7435764E-2,3.4600243E-2,4.1961398E-2,-8.092387E-2,-4.319653E-2,3.9044037E-2,-9.164026E-2,1.3214888E-2,6.445145E-2,6.9855168E-3,-3.1418245E-2,5.5511957E-3,-4.362397E-2,-5.978757E-3,2.7851775E-2,7.6252766E-2,-7.695011E-2,5.6622393E-2],"split_indices":[2,4,2,4,16,0,0,4,18,0,2,0,22,22,18,18,22,9,4,22,0,12,4,12,22,3,22,18,7,0,0,10,2,7,16,0,0,0,0,0,0,0,0,0,0,0,0,0,0,0,0,0,0,0,0,0,0,0,0,0,0],"split_type":[0,0,0,0,0,0,0,0,0,0,0,0,0,0,0,0,0,0,0,0,0,0,0,0,0,0,0,0,0,0,0,0,0,0,0,0,0,0,0,0,0,0,0,0,0,0,0,0,0,0,0,0,0,0,0,0,0,0,0,0,0],"sum_hessian":[8.779952E3,7.331888E3,1.4480636E3,1.1065405E3,6.225348E3,8.763379E1,1.3604298E3,5.890318E2,5.1750867E2,3.3654514E2,5.8888027E3,3.1551497E0,8.4478645E1,3.3267273E2,2.563591E2,4.0909055E2,1.08418106E2,4.6134738E2,5.4274556E3,8.255417E1,1.9244742E0,3.2505756E2,7.6151743E0,2.5917873E1,2.3044122E2,5.8093246E1,3.5099728E2,8.039257E1,2.8025536E1,1.9911515E0,4.5935623E2,5.216695E2,4.9057856E3,5.4407673E1,2.8146494E1,3.0953073E2,1.5526817E1,3.8814557E0,3.7337186E0,1.1818236E1,1.4099637E1,2.2276664E0,2.2821356E2,3.0139313E1,2.7953932E1,3.4527344E2,5.7238507E0,2.6249002E1,5.414357E1,2.1104132E1,6.921402E0,4.463863E2,1.296995E1,1.0642651E2,4.1524298E2,4.641315E3,2.6447092E2,4.9721203E0,4.9435555E1,2.4687366E0,2.5677757E1],"tree_param":{"num_deleted":"0","num_feature":"23","num_nodes":"61","size_leaf_vector":"1"}},{"base_weights":[4.136241E-3,-2.845758E-1,1.4672357E0,8.487299E-2,-3.9558122E-1,-5.8234375E-2,1.471952E0,5.0861084E-1,-6.750343E-1,1.0315901E0,7.476755E-2,1.1226571E0,1.6008036E-1,1.1684114E0,-8.3097905E-1,-7.145991E-2,1.1610187E0,1.1356095E0,-6.798922E-2,1.9569719E-1,-9.033535E-2,1.2017516E0,-3.1162813E-1,-8.7246823E-1,-1.2263771E-1,1.2331918E0,-5.723315E-2,3.4623705E-2,6.053662E-2,1.9088933E-2,-6.2715784E-3,3.1885203E-2,6.141168E-2,-8.223211E-2,6.891962E-2,-4.5214307E-2,-1.6567517E-2,9.906161E-3,-7.184724E-2,7.050306E-2,2.7064854E-2],"categories":[],"categories_nodes":[],"categories_segments":[],"categories_sizes":[],"default_left":[0,0,0,0,0,0,0,0,0,0,0,0,0,0,0,0,0,0,0,0,0,0,0,0,0,0,0,0,0,0,0,0,0,0,0,0,0,0,0,0,0],"id":8,"left_children":[1,3,5,-1,7,-1,9,11,13,15,-1,17,19,21,23,-1,25,27,-1,29,-1,31,33,35,37,39,-1,-1,-1,-1,-1,-1,-1,-1,-1,-1,-1,-1,-1,-1,-1],"loss_changes":[3.645459E3,1.5865002E3,1.9369385E1,0E0,1.7252104E3,0E0,1.309082E1,3.4485983E2,1.5001792E3,2.550853E1,0E0,2.0308838E1,7.248054E1,2.0466309E1,1.4121948E2,0E0,1.334153E1,1.8506409E1,0E0,6.0534626E1,0E0,5.1678467E0,2.4263937E1,7.79126E1,1.12950386E2,7.8025284E0,0E0,0E0,0E0,0E0,0E0,0E0,0E0,0E0,0E0,0E0,0E0,0E0,0E0,0E0,0E0],"parents":[2147483647,0,0,1,1,2,2,4,4,6,6,7,7,8,8,9,9,11,11,12,12,13,13,14,14,16,16,17,17,19,19,21,21,22,22,23,23,24,24,25,25],"right_children":[2,4,6,-1,8,-1,10,12,14,16,-1,18,20,22,24,-1,26,28,-1,30,-1,32,34,36,38,40,-1,-1,-1,-1,-1,-1,-1,-1,-1,-1,-1,-1,-1,-1,-1],"split_conditions":[2.0355577E0,3.2E1,1.517E1,8.487299E-2,1.2E1,-5.8234375E-2,2.4384959E0,7E0,1.1070045E-1,1.3E1,7.476755E-2,7.2E1,1.1715667E2,5.09E0,1.5141422E0,-7.145991E-2,4.3937817E1,2.865E3,-6.798922E-2,1.09971886E2,-9.033535E-2,3.03E0,9.8214287E-1,1.386E3,1.243E3,5.762712E-1,-5.723315E-2,3.4623705E-2,6.053662E-2,1.9088933E-2,-6.2715784E-3,3.1885203E-2,6.141168E-2,-8.223211E-2,6.891962E-2,-4.5214307E-2,-1.6567517E-2,9.906161E-3,-7.184724E-2,7.050306E-2,2.7064854E-2],"split_indices":[2,16,0,0,4,0,2,4,2,4,0,11,22,0,2,0,12,18,0,9,0,21,10,14,14,10,0,0,0,0,0,0,0,0,0,0,0,0,0,0,0],"split_type":[0,0,0,0,0,0,0,0,0,0,0,0,0,0,0,0,0,0,0,0,0,0,0,0,0,0,0,0,0,0,0,0,0,0,0,0,0,0,0,0,0],"sum_hessian":[8.628065E3,7.206766E3,1.421299E3,3.814563E2,6.82531E3,2.1023932E0,1.4191965E3,1.6112302E3,5.2140796E3,7.388066E1,1.3453159E3,5.825912E2,1.028639E3,4.061717E2,4.807908E3,3.1898856E0,7.069078E1,5.8010693E2,2.4842398E0,1.01122705E3,1.7411957E1,3.974075E2,8.764191E0,4.5416606E3,2.6624734E2,6.899619E1,1.6945884E0,8.556904E1,4.945379E2,6.4011615E2,3.7111093E2,1.8946291E1,3.784612E2,4.9146113E0,3.8495789E0,4.288806E3,2.5285434E2,2.1469868E2,5.154866E1,5.4122776E1,1.4873411E1],"tree_param":{"num_deleted":"0","num_feature":"23","num_nodes":"41","size_leaf_vector":"1"}},{"base_weights":[1.5406621E-2,-2.5694755E-1,1.432768E0,8.202365E-2,-3.6388475E-1,1.0067153E0,7.294715E-2,7.54345E-1,-5.7493734E-1,1.1031145E0,-6.8990976E-2,1.1488876E0,4.8339385E-1,1.1309458E0,-7.0739806E-1,-5.6912925E-2,1.1727906E0,1.1592208E0,-5.6413855E-2,6.5627456E-1,-1.4703211E-1,1.1555997E0,-7.062705E-2,-1.07940935E-1,-7.693571E-1,1.2235521E0,-4.699235E-2,6.796798E-2,5.1993854E-2,-1.3522982E-2,3.84986E-2,-6.507045E-2,1.0328386E-2,-1.19489115E-2,5.8918774E-2,-2.3748202E-2,1.2968096E-2,-4.4019025E-2,-2.952753E-2,6.9702476E-2,3.9257992E-2],"categories":[],"categories_nodes":[],"categories_segments":[],"categories_sizes":[],"default_left":[0,0,0,0,0,0,0,0,0,0,0,0,0,0,0,0,0,0,0,0,0,0,0,0,0,0,0,0,0,0,0,0,0,0,0,0,0,0,0,0,0],"id":9,"left_children":[1,3,5,-1,7,9,-1,11,13,15,-1,17,19,21,23,-1,25,27,-1,29,31,33,-1,35,37,39,-1,-1,-1,-1,-1,-1,-1,-1,-1,-1,-1,-1,-1,-1,-1],"loss_changes":[3.3063877E3,1.4584087E3,1.3927246E1,0E0,1.6057897E3,2.0647842E1,0E0,1.1494464E2,1.2939329E3,1.3900688E1,0E0,1.1641663E1,7.009624E1,2.7513672E1,1.9717847E2,0E0,9.571388E0,9.040405E0,0E0,5.3337265E1,5.7023296E1,1.3282776E1,0E0,6.73498E1,9.503345E1,4.6697845E0,0E0,0E0,0E0,0E0,0E0,0E0,0E0,0E0,0E0,0E0,0E0,0E0,0E0,0E0,0E0],"parents":[2147483647,0,0,1,1,2,2,4,4,5,5,7,7,8,8,9,9,11,11,12,12,13,13,14,14,16,16,17,17,19,19,20,20,21,21,23,23,24,24,25,25],"right_children":[2,4,6,-1,8,10,-1,12,14,16,-1,18,20,22,24,-1,26,28,-1,30,32,34,-1,36,38,40,-1,-1,-1,-1,-1,-1,-1,-1,-1,-1,-1,-1,-1,-1,-1],"split_conditions":[2.0355577E0,3.2E1,2.4384959E0,8.202365E-2,1E1,8.5365856E-1,7.294715E-2,6E0,1.1070045E-1,2.058E1,-6.8990976E-2,7.2E1,3.84331E1,6.21E0,1.2E1,-5.6912925E-2,4.6123333E1,1.22966E1,-5.6413855E-2,2.865E3,3.7316666E1,-9.659258E-1,-7.062705E-2,2.323E1,9.639403E-1,1.85E1,-4.699235E-2,6.796798E-2,5.1993854E-2,-1.3522982E-2,3.84986E-2,-6.507045E-2,1.0328386E-2,-1.19489115E-2,5.8918774E-2,-2.3748202E-2,1.2968096E-2,-4.4019025E-2,-2.952753E-2,6.9702476E-2,3.9257992E-2],"split_indices":[2,16,2,0,4,10,0,4,2,0,0,11,12,0,4,0,22,12,0,18,22,6,0,20,2,21,0,0,0,0,0,0,0,0,0,0,0,0,0,0,0],"split_type":[0,0,0,0,0,0,0,0,0,0,0,0,0,0,0,0,0,0,0,0,0,0,0,0,0,0,0,0,0,0,0,0,0,0,0,0,0,0,0,0,0],"sum_hessian":[8.563279E3,7.183707E3,1.379572E3,3.8250256E2,6.8012046E3,8.21337E1,1.2974384E3,1.0794309E3,5.721774E3,7.946178E1,2.67192E0,4.381636E2,6.4126733E2,4.1173575E2,5.310038E3,1.9333274E0,7.752845E1,4.3667303E2,1.4905854E0,5.0322714E2,1.3804019E2,4.0832355E2,3.4121873E0,4.9768185E2,4.812356E3,7.612031E1,1.4081426E0,1.5923935E2,2.774337E2,5.484153E1,4.4838562E2,3.174E1,1.0630019E2,6.408894E0,4.0191467E2,2.4878912E2,2.4889273E2,2.966495E3,1.845861E3,5.3236084E1,2.2884228E1],"tree_param":{"num_deleted":"0","num_feature":"23","num_nodes":"41","size_leaf_vector":"1"}},{"base_weights":[-5.7306597E-3,-2.2418642E-1,1.3714397E0,7.95806E-2,-3.171007E-1,-6.272199E-2,1.3786092E0,4.9608523E-1,-5.6765443E-1,1.0940588E0,7.149146E-2,1.0284175E0,2.2524622E-1,1.0141686E0,-6.7182606E-1,-7.19854E-2,1.1333251E0,-8.7393634E-2,1.0518781E0,5.42777E-1,5.5338624E-3,1.2950532E0,7.7497816E-1,-7.9188013E-1,-9.1905855E-2,1.171214E0,-6.322362E-2,5.3377688E-2,-6.737505E-2,2.9867161E-2,-8.746209E-2,2.9513998E-2,-9.108051E-3,6.760832E-2,2.0297354E-2,-7.839646E-2,4.792986E-2,2.1044953E-2,-4.103087E-2,-1.4609121E-2,3.9897442E-2,-6.9478573E-3,6.102399E-2],"categories":[],"categories_nodes":[],"categories_segments":[],"categories_sizes":[],"default_left":[0,0,0,0,0,0,0,0,0,0,0,0,0,0,0,0,0,0,0,0,0,0,0,0,0,0,0,0,0,0,0,0,0,0,0,0,0,0,0,0,0,0,0],"id":10,"left_children":[1,3,5,-1,7,-1,9,11,13,15,-1,17,19,21,23,-1,25,-1,27,29,31,33,35,37,39,41,-1,-1,-1,-1,-1,-1,-1,-1,-1,-1,-1,-1,-1,-1,-1,-1,-1],"loss_changes":[2.5117234E3,1.2162032E3,2.3248047E1,0E0,1.3971208E3,0E0,1.50563965E1,2.3266257E2,8.643679E2,1.9362839E1,0E0,3.7299377E1,7.477928E1,2.0780823E1,3.4233936E2,0E0,1.7475739E1,0E0,2.1767517E1,5.5869324E1,6.975175E1,6.9480133E0,7.79117E1,1.4234937E2,1.5076553E2,1.1390228E1,0E0,0E0,0E0,0E0,0E0,0E0,0E0,0E0,0E0,0E0,0E0,0E0,0E0,0E0,0E0,0E0,0E0],"parents":[2147483647,0,0,1,1,2,2,4,4,6,6,7,7,8,8,9,9,11,11,12,12,13,13,14,14,16,16,18,18,19,19,20,20,21,21,22,22,23,23,24,24,25,25],"right_children":[2,4,6,-1,8,-1,10,12,14,16,-1,18,20,22,24,-1,26,-1,28,30,32,34,36,38,40,42,-1,-1,-1,-1,-1,-1,-1,-1,-1,-1,-1,-1,-1,-1,-1,-1,-1],"split_conditions":[2.0822651E0,3.2E1,2.6217659E0,7.95806E-2,1.2E1,-6.272199E-2,3.4484334E0,7E0,1.10194E0,-9.659258E-1,7.149146E-2,2.93E2,4.953E3,4.7623417E-1,5.014773E-1,-7.19854E-2,9.1071427E-1,-8.7393634E-2,7.2E1,8.345E1,-4.8211372E-1,-7.275875E-1,7.5248647E0,-1.6392213E0,4.527641E0,4E1,-6.322362E-2,5.3377688E-2,-6.737505E-2,2.9867161E-2,-8.746209E-2,2.9513998E-2,-9.108051E-3,6.760832E-2,2.0297354E-2,-7.839646E-2,4.792986E-2,2.1044953E-2,-4.103087E-2,-1.4609121E-2,3.9897442E-2,-6.9478573E-3,6.102399E-2],"split_indices":[3,16,1,0,4,0,3,4,1,5,0,15,17,1,3,0,10,0,11,19,3,3,12,3,1,11,0,0,0,0,0,0,0,0,0,0,0,0,0,0,0,0,0],"split_type":[0,0,0,0,0,0,0,0,0,0,0,0,0,0,0,0,0,0,0,0,0,0,0,0,0,0,0,0,0,0,0,0,0,0,0,0,0,0,0,0,0,0,0],"sum_hessian":[8.346713E3,7.2046943E3,1.1420184E3,3.4993237E2,6.8547617E3,2.6358757E0,1.1393826E3,1.614343E3,5.240419E3,1.7721732E2,9.621652E2,5.434327E2,1.0709103E3,3.2324704E2,4.917172E3,2.1601903E0,1.7505713E2,3.9378083E0,5.394949E2,4.3736096E2,6.335493E2,1.4663602E2,1.7661104E2,4.0735142E3,8.4365765E2,1.7283757E2,2.2195542E0,5.3654456E2,2.9502864E0,4.27913E2,9.44797E0,1.5342451E2,4.8012482E2,1.3729578E2,9.340231E0,1.2287556E1,1.6432349E2,9.397314E1,3.979541E3,6.8921094E2,1.5444672E2,6.1976385E0,1.6663994E2],"tree_param":{"num_deleted":"0","num_feature":"23","num_nodes":"43","size_leaf_vector":"1"}},{"base_weights":[-1.5374394E-2,-2.6085913E-1,1.3721781E0,7.716172E-2,-3.5393938E-1,-5.7925712E-2,1.3773586E0,-5.896287E-1,4.1939664E-1,1.0183249E0,7.003688E-2,1.0715966E0,-7.253462E-1,1.5142283E-1,9.622373E-1,-6.337297E-2,1.0929123E0,1.083248E0,-5.068636E-2,-7.544663E-1,2.873965E-1,1.853068E-1,-8.632737E-2,1.1677939E0,6.9770813E-1,1.1451967E0,-5.9803527E-2,5.7097014E-2,3.9009277E-2,-3.8474023E-2,6.2039953E-2,8.160854E-2,-2.9277853E-3,5.0744314E-2,6.0318606E-3,6.0123887E-2,-8.074733E-2,-2.1644985E-2,4.227575E-2,5.9847016E-2,-4.6716686E-2],"categories":[],"categories_nodes":[],"categories_segments":[],"categories_sizes":[],"default_left":[0,0,0,0,0,0,0,0,0,0,0,0,0,0,0,0,0,0,0,0,0,0,0,0,0,0,0,0,0,0,0,0,0,0,0,0,0,0,0,0,0],"id":11,"left_children":[1,3,5,-1,7,-1,9,11,13,15,-1,17,19,21,23,-1,25,27,-1,29,31,33,-1,35,37,39,-1,-1,-1,-1,-1,-1,-1,-1,-1,-1,-1,-1,-1,-1,-1],"loss_changes":[2.7990847E3,1.1730352E3,1.7791016E1,0E0,1.210582E3,0E0,8.925049E0,1.1483057E3,2.2557092E2,1.4863655E1,0E0,1.0448029E1,1.3900098E2,6.6500206E1,2.7060272E1,0E0,1.059639E1,5.9246216E0,0E0,1.3800024E2,6.1624664E1,5.4733204E1,0E0,2.9641235E1,3.824154E1,9.283714E0,0E0,0E0,0E0,0E0,0E0,0E0,0E0,0E0,0E0,0E0,0E0,0E0,0E0,0E0,0E0],"parents":[2147483647,0,0,1,1,2,2,4,4,6,6,7,7,8,8,9,9,11,11,12,12,13,13,14,14,16,16,17,17,19,19,20,20,21,21,23,23,24,24,25,25],"right_children":[2,4,6,-1,8,-1,10,12,14,16,-1,18,20,22,24,-1,26,28,-1,30,32,34,-1,36,38,40,-1,-1,-1,-1,-1,-1,-1,-1,-1,-1,-1,-1,-1,-1,-1],"split_conditions":[2.0355577E0,3.2E1,1.66E1,7.716172E-2,2.5881904E-1,-5.7925712E-2,2.4384959E0,1.1070045E-1,-1.8369701E-16,8.16E0,7.003688E-2,7.86E0,1.6915734E0,1.1715667E2,9.659258E-1,-6.337297E-2,6.8E1,8.604794E-2,-5.068636E-2,1E0,2.512E3,2.5586537E-1,-8.632737E-2,6.959333E1,2.865E3,4.6123333E1,-5.9803527E-2,5.7097014E-2,3.9009277E-2,-3.8474023E-2,6.2039953E-2,8.160854E-2,-2.9277853E-3,5.0744314E-2,6.0318606E-3,6.0123887E-2,-8.074733E-2,-2.1644985E-2,4.227575E-2,5.9847016E-2,-4.6716686E-2],"split_indices":[2,16,0,0,5,0,2,2,6,19,0,0,2,22,5,0,16,2,0,6,18,2,0,22,18,22,0,0,0,0,0,0,0,0,0,0,0,0,0,0,0],"split_type":[0,0,0,0,0,0,0,0,0,0,0,0,0,0,0,0,0,0,0,0,0,0,0,0,0,0,0,0,0,0,0,0,0,0,0,0,0,0,0,0,0],"sum_hessian":[8.215495E3,6.9811987E3,1.2342964E3,3.4175128E2,6.6394473E3,2.0667558E0,1.2322296E3,5.08878E3,1.5506678E3,7.8056725E1,1.154173E3,3.8381894E2,4.7049604E3,1.039029E3,5.1163876E2,1.9612058E0,7.609552E1,3.821642E2,1.6547399E0,4.5737046E3,1.3125587E2,1.02149963E3,1.7529459E1,2.8599063E2,2.2564812E2,7.488471E1,1.2108068E0,3.178417E2,6.432251E1,4.540155E3,3.35498E1,2.6096497E1,1.05159386E2,7.2809425E1,9.486902E2,2.8303082E2,2.9597993E0,2.5865818E1,1.997823E2,7.348076E1,1.4039568E0],"tree_param":{"num_deleted":"0","num_feature":"23","num_nodes":"41","size_leaf_vector":"1"}},{"base_weights":[-1.861562E-2,-2.5661838E-1,1.345497E0,-4.693523E-1,4.5444453E-1,8.350807E-1,6.867008E-2,7.511594E-2,-5.836078E-1,1.8018341E-1,6.4147997E-1,-6.61447E-2,9.708942E-1,1.0006858E0,-7.093794E-1,5.144267E-1,-3.1553242E-2,-1.0361316E0,6.6727424E-1,1.0733384E0,-6.386336E-2,1.021822E0,-8.09915E-2,-7.352166E-1,2.0354077E-1,9.412886E-1,1.7621449E-1,3.3720532E-1,-5.845059E-1,6.13736E-2,-9.425903E-2,9.477218E-1,5.3128517E-1,1.1434178E0,-5.3096663E-2,6.262388E-2,4.140894E-2,-2.1481818E-2,-4.077894E-2,2.5781095E-2,-8.092822E-2,5.1320743E-2,-7.284318E-2,5.059601E-2,-7.065516E-3,-9.404435E-2,2.6224812E-2,-1.5392455E-2,-9.2897296E-2,-6.0055047E-2,4.8196997E-2,4.997907E-2,1.8808372E-2,6.29978E-2,3.485595E-2],"categories":[],"categories_nodes":[],"categories_segments":[],"categories_sizes":[],"default_left":[0,0,0,0,0,0,0,0,0,0,0,0,0,0,0,0,0,0,0,0,0,0,0,0,0,0,0,0,0,0,0,0,0,0,0,0,0,0,0,0,0,0,0,0,0,0,0,0,0,0,0,0,0,0,0],"id":12,"left_children":[1,3,5,7,9,11,-1,-1,13,15,17,-1,19,21,23,25,27,29,31,33,-1,35,-1,37,39,41,43,45,47,-1,-1,49,51,53,-1,-1,-1,-1,-1,-1,-1,-1,-1,-1,-1,-1,-1,-1,-1,-1,-1,-1,-1,-1,-1],"loss_changes":[2.645725E3,1.0497789E3,1.6095703E1,1.204105E3,8.187256E1,2.042387E1,0E0,0E0,1.0068346E3,4.5977974E1,4.1795288E1,0E0,1.5653511E1,2.2247192E1,1.10504395E2,3.620331E1,8.145804E1,3.071123E1,3.519748E1,1.017083E1,0E0,1.546286E1,0E0,1.1138428E2,7.450249E1,2.4182701E1,3.7766285E1,1.0057101E2,5.5728783E1,0E0,0E0,1.1766541E1,4.5583313E1,2.1608887E0,0E0,0E0,0E0,0E0,0E0,0E0,0E0,0E0,0E0,0E0,0E0,0E0,0E0,0E0,0E0,0E0,0E0,0E0,0E0,0E0,0E0],"parents":[2147483647,0,0,1,1,2,2,3,3,4,4,5,5,8,8,9,9,10,10,12,12,13,13,14,14,15,15,16,16,17,17,18,18,19,19,21,21,23,23,24,24,25,25,26,26,27,27,28,28,31,31,32,32,33,33],"right_children":[2,4,6,8,10,12,-1,-1,14,16,18,-1,20,22,24,26,28,30,32,34,-1,36,-1,38,40,42,44,46,48,-1,-1,50,52,54,-1,-1,-1,-1,-1,-1,-1,-1,-1,-1,-1,-1,-1,-1,-1,-1,-1,-1,-1,-1,-1],"split_conditions":[2.0355577E0,2.5881904E-1,2.4384959E0,3.2E1,7.0710677E-1,7.52E0,6.867008E-2,7.511594E-2,1.1070045E-1,-2.578434E-1,3.76E0,-6.61447E-2,0E0,1.24706665E2,1.6915734E0,4.953E3,8.567944E1,4.8698277E0,4.7E1,4.3937817E1,-6.386336E-2,-1.6392213E0,-8.09915E-2,4.5E1,1.243E3,6.071216E1,1E0,-1.6236833E-1,1.1611006E0,6.13736E-2,-9.425903E-2,1.127E3,4.93E3,1.85E1,-5.3096663E-2,6.262388E-2,4.140894E-2,-2.1481818E-2,-4.077894E-2,2.5781095E-2,-8.092822E-2,5.1320743E-2,-7.284318E-2,5.059601E-2,-7.065516E-3,-9.404435E-2,2.6224812E-2,-1.5392455E-2,-9.2897296E-2,-6.0055047E-2,4.8196997E-2,4.997907E-2,1.8808372E-2,6.29978E-2,3.485595E-2],"split_indices":[2,5,2,16,5,19,0,0,2,3,22,0,5,22,2,17,9,12,16,12,0,3,0,16,14,12,7,3,2,0,0,14,17,21,0,0,0,0,0,0,0,0,0,0,0,0,0,0,0,0,0,0,0,0,0],"split_type":[0,0,0,0,0,0,0,0,0,0,0,0,0,0,0,0,0,0,0,0,0,0,0,0,0,0,0,0,0,0,0,0,0,0,0,0,0,0,0,0,0,0,0,0,0,0,0,0,0,0,0,0,0,0,0],"sum_hessian":[8.14709E3,6.937488E3,1.2096023E3,5.34017E3,1.5973179E3,6.430412E1,1.1452981E3,2.9183948E2,5.04833E3,6.484381E2,9.488798E2,3.2898815E0,6.101424E1,3.70782E2,4.6775483E3,2.5091661E2,3.975215E2,1.3775519E1,9.351043E2,5.885491E1,2.1593301E0,3.6842056E2,2.361471E0,4.548998E3,1.2855002E2,1.101331E2,1.4078351E2,2.3871504E2,1.5880647E2,3.6360204E0,1.01395E1,3.0341284E2,6.316914E2,5.743443E1,1.420483E0,1.6564566E2,2.0277489E2,9.485282E2,3.60047E3,1.1036437E2,1.8185644E1,1.0691015E2,3.2229486E0,3.8160503E1,1.02623E2,1.7883041E1,2.20832E2,1.3148328E2,2.7323198E1,1.7255664E0,3.016873E2,1.5582274E2,4.7586868E2,4.4096714E1,1.3337714E1],"tree_param":{"num_deleted":"0","num_feature":"23","num_nodes":"55","size_leaf_vector":"1"}},{"base_weights":[1.902276E-2,-2.0822369E-1,1.3266938E0,-4.0645412E-1,4.5175868E-1,-4.049422E-2,1.329627E0,7.3298275E-2,-5.053567E-1,2.262114E-1,9.134159E-1,1.0892445E0,6.736477E-2,9.663042E-1,-6.332223E-1,2.5814432E-1,-8.308322E-2,9.305499E-1,-7.914236E-2,-5.562491E-2,1.1456913E0,1.0943408E0,4.739603E-1,-7.170735E-1,-3.200704E-1,2.8829557E-1,-1.1775744E0,4.6231163E-1,1.0189403E0,1.2029402E0,-4.9161576E-2,5.5312652E-2,-5.7478208E-2,4.695496E-2,-5.800994E-2,-3.6536753E-2,5.8626663E-2,-7.161563E-2,-1.1397771E-2,4.2010453E-2,1.0501604E-2,-9.261534E-2,4.2614434E-2,6.862736E-2,-2.7679328E-2,2.857335E-2,5.645116E-2,7.18687E-2,4.5541387E-2],"categories":[],"categories_nodes":[],"categories_segments":[],"categories_sizes":[],"default_left":[0,0,0,0,0,0,0,0,0,0,0,0,0,0,0,0,0,0,0,0,0,0,0,0,0,0,0,0,0,0,0,0,0,0,0,0,0,0,0,0,0,0,0,0,0,0,0,0,0],"id":13,"left_children":[1,3,5,7,9,-1,11,-1,13,15,17,19,-1,21,23,25,-1,27,-1,-1,29,31,33,35,37,39,41,43,45,47,-1,-1,-1,-1,-1,-1,-1,-1,-1,-1,-1,-1,-1,-1,-1,-1,-1,-1,-1],"loss_changes":[2.423942E3,9.093582E2,8.645752E0,9.90514E2,1.6698148E2,0E0,3.6557617E0,0E0,9.560342E2,6.553607E1,2.3998627E1,1.2188759E1,0E0,2.5092072E1,1.2244983E2,4.635038E1,0E0,2.1203552E1,0E0,0E0,1.1678467E1,9.86969E0,6.61646E1,9.597058E1,1.0095861E2,4.4824852E1,3.1790989E1,7.935206E1,2.1014282E1,4.46447E0,0E0,0E0,0E0,0E0,0E0,0E0,0E0,0E0,0E0,0E0,0E0,0E0,0E0,0E0,0E0,0E0,0E0,0E0,0E0],"parents":[2147483647,0,0,1,1,2,2,3,3,4,4,6,6,8,8,9,9,10,10,11,11,13,13,14,14,15,15,17,17,20,20,21,21,22,22,23,23,24,24,25,25,26,26,27,27,28,28,29,29],"right_children":[2,4,6,8,10,-1,12,-1,14,16,18,20,-1,22,24,26,-1,28,-1,-1,30,32,34,36,38,40,42,44,46,48,-1,-1,-1,-1,-1,-1,-1,-1,-1,-1,-1,-1,-1,-1,-1,-1,-1,-1,-1],"split_conditions":[2.0355577E0,2.5881904E-1,1.459E1,3.2E1,-1.8369701E-16,-4.049422E-2,2.4384959E0,7.3298275E-2,1.4144623E-1,1.1264667E2,1.1199E2,2.058E1,6.736477E-2,8.604794E-2,2.9335418E-1,9.777778E-1,-8.308322E-2,2.865E3,-7.914236E-2,-5.562491E-2,4.6123333E1,1.5772E2,-1.0614508E0,1E0,5.01E0,-8.598781E-1,6.53E2,1.1669412E1,9.91E0,1.6940539E0,-4.9161576E-2,5.5312652E-2,-5.7478208E-2,4.695496E-2,-5.800994E-2,-3.6536753E-2,5.8626663E-2,-7.161563E-2,-1.1397771E-2,4.2010453E-2,1.0501604E-2,-9.261534E-2,4.2614434E-2,6.862736E-2,-2.7679328E-2,2.857335E-2,5.645116E-2,7.18687E-2,4.5541387E-2],"split_indices":[2,5,0,16,6,0,2,0,2,22,21,0,0,2,3,10,0,18,0,0,22,21,3,6,19,3,15,12,22,3,0,0,0,0,0,0,0,0,0,0,0,0,0,0,0,0,0,0,0],"split_type":[0,0,0,0,0,0,0,0,0,0,0,0,0,0,0,0,0,0,0,0,0,0,0,0,0,0,0,0,0,0,0,0,0,0,0,0,0,0,0,0,0,0,0,0,0,0,0,0,0],"sum_hessian":[8.1549985E3,6.948357E3,1.2066415E3,5.3437173E3,1.6046396E3,1.2771679E0,1.2053643E3,2.6740457E2,5.076313E3,1.0789822E3,5.2565753E2,8.681849E1,1.1185458E3,4.0527448E2,4.6710386E3,1.0618839E3,1.709822E1,5.22697E2,2.9604993E0,1.7025017E0,8.511599E1,3.206619E2,8.461258E1,3.6834487E3,9.8758966E2,1.040825E3,2.1058975E1,8.399154E1,4.387055E2,8.331063E1,1.8053535E0,3.194729E2,1.1889887E0,6.619617E1,1.8416412E1,3.6576182E3,2.583067E1,7.442278E1,9.131669E2,1.2805399E2,9.1277094E2,1.587091E1,5.188065E0,4.4114388E1,3.9877155E1,8.783957E1,3.5086594E2,4.404326E1,3.9267376E1],"tree_param":{"num_deleted":"0","num_feature":"23","num_nodes":"49","size_leaf_vector":"1"}},{"base_weights":[7.386617E-3,-1.3886362E-1,9.4346595E-1,6.8712795E-1,-2.8893277E-1,1.294205E0,3.618751E-1,1.0081946E0,4.8813185E-1,7.159173E-2,-3.7204534E-1,1.3039837E0,8.597965E-1,-2.8164625E-1,1.2056581E0,1.0548121E0,1.5690462E-1,6.247543E-1,-4.0598187E-1,8.557704E-1,-4.5845324E-1,1.3101318E0,9.314728E-1,-6.346032E-2,6.206804E-2,6.0751694E-1,-5.9228265E-1,1.3174878E0,5.0539654E-1,-7.307195E-2,1.0698448E0,6.859628E-2,-1.137891E-1,-5.945414E-1,6.87396E-1,-9.2456244E-2,3.3880997E-1,1.0924994E0,4.7332582E-1,-5.934135E-1,-2.1780698E-1,1.2974864E0,1.5925205E0,-4.968768E-2,6.12314E-2,-5.9267735E-1,9.413753E-1,-2.9431367E-1,-7.801852E-2,1.3460042E0,2.8029785E-1,-1.637609E-1,6.1090153E-2,5.422784E-2,-6.916987E-2,-8.5601404E-2,4.817223E-2,-8.830097E-2,3.600472E-2,-8.4013544E-2,3.412265E-2,-6.0608245E-2,5.550911E-2,-8.0152564E-2,4.7691654E-2,-3.460885E-2,-1.2351044E-2,5.939731E-2,-2.2915833E-2,6.529965E-2,-5.675403E-2,8.903521E-2,-4.9411222E-2,7.162673E-2,-8.0953255E-2,-6.526596E-2,5.7508398E-2,1.6201427E-2,-4.617415E-2,7.73217E-2,6.362959E-2,-4.9320575E-2,4.941265E-2,-7.207932E-2,4.9177375E-2],"categories":[],"categories_nodes":[],"categories_segments":[],"categories_sizes":[],"default_left":[0,0,0,0,0,0,0,0,0,0,0,0,0,0,0,0,0,0,0,0,0,0,0,0,0,0,0,0,0,0,0,0,0,0,0,0,0,0,0,0,0,0,0,0,0,0,0,0,0,0,0,0,0,0,0,0,0,0,0,0,0,0,0,0,0,0,0,0,0,0,0,0,0,0,0,0,0,0,0,0,0,0,0,0,0],"id":14,"left_children":[1,3,5,7,9,11,13,15,17,-1,19,21,23,25,27,29,31,33,35,37,39,41,43,-1,-1,45,47,49,51,-1,53,-1,-1,55,57,-1,59,61,63,65,67,69,71,-1,-1,73,75,77,-1,79,81,83,-1,-1,-1,-1,-1,-1,-1,-1,-1,-1,-1,-1,-1,-1,-1,-1,-1,-1,-1,-1,-1,-1,-1,-1,-1,-1,-1,-1,-1,-1,-1,-1,-1],"loss_changes":[1.0987821E3,8.606476E2,2.2075983E2,6.7715485E1,8.407621E2,1.7510986E0,2.2263077E2,1.6008179E1,8.100003E1,0E0,5.950565E2,2.8967285E-1,1.605231E1,6.4733215E1,1.3220001E1,1.617273E1,6.913622E1,4.4233902E1,9.545115E1,3.2879333E1,1.6996448E2,2.4108887E-1,9.211553E0,0E0,0E0,2.493428E1,4.950997E1,4.1266785E0,1.2683489E1,0E0,1.5377777E1,0E0,0E0,5.139811E1,4.5090393E1,0E0,4.2108162E1,1.0599884E1,1.4399954E2,1.1460156E2,6.3731323E2,1.4391968E1,1.3073986E1,0E0,0E0,3.111559E1,2.4009308E1,5.2310444E1,0E0,2.0883179E-1,5.7615514E0,2.2449873E1,0E0,0E0,0E0,0E0,0E0,0E0,0E0,0E0,0E0,0E0,0E0,0E0,0E0,0E0,0E0,0E0,0E0,0E0,0E0,0E0,0E0,0E0,0E0,0E0,0E0,0E0,0E0,0E0,0E0,0E0,0E0,0E0,0E0],"parents":[2147483647,0,0,1,1,2,2,3,3,4,4,5,5,6,6,7,7,8,8,10,10,11,11,12,12,13,13,14,14,15,15,16,16,17,17,18,18,19,19,20,20,21,21,22,22,25,25,26,26,27,27,28,28,30,30,33,33,34,34,36,36,37,37,38,38,39,39,40,40,41,41,42,42,45,45,46,46,47,47,49,49,50,50,51,51],"right_children":[2,4,6,8,10,12,14,16,18,-1,20,22,24,26,28,30,32,34,36,38,40,42,44,-1,-1,46,48,50,52,-1,54,-1,-1,56,58,-1,60,62,64,66,68,70,72,-1,-1,74,76,78,-1,80,82,84,-1,-1,-1,-1,-1,-1,-1,-1,-1,-1,-1,-1,-1,-1,-1,-1,-1,-1,-1,-1,-1,-1,-1,-1,-1,-1,-1,-1,-1,-1,-1,-1,-1],"split_conditions":[9.154E1,1E1,6.67402E1,6E0,3.2E1,7.167E1,2.0764E2,5.9742184E1,4.1514706E1,7.159173E-2,2.36E0,7.526E1,1.1251E2,1.3E1,1.3644E2,2.93E2,3.96E2,2.512E3,8.854097E1,1.18E0,2.705E1,5.915333E1,1.2893E2,-6.346032E-2,6.206804E-2,7.092736E1,5.9E1,1.4157E2,5.1824E2,-7.307195E-2,6.959333E1,6.859628E-2,-1.137891E-1,2.393E1,3.76E0,-9.2456244E-2,3.479E1,-1.12614494E2,1.0013333E1,6.21E2,1.9412037E1,6.515946E1,1.8E1,-4.968768E-2,6.12314E-2,-8.930082E1,4.9E1,5.8985916E1,-7.801852E-2,-3.0385834E1,5.1824E2,2.9412E2,6.1090153E-2,5.422784E-2,-6.916987E-2,-8.5601404E-2,4.817223E-2,-8.830097E-2,3.600472E-2,-8.4013544E-2,3.412265E-2,-6.0608245E-2,5.550911E-2,-8.0152564E-2,4.7691654E-2,-3.460885E-2,-1.2351044E-2,5.939731E-2,-2.2915833E-2,6.529965E-2,-5.675403E-2,8.903521E-2,-4.9411222E-2,7.162673E-2,-8.0953255E-2,-6.526596E-2,5.7508398E-2,1.6201427E-2,-4.617415E-2,7.73217E-2,6.362959E-2,-4.9320575E-2,4.941265E-2,-7.207932E-2,4.9177375E-2],"split_indices":[0,4,12,4,16,19,0,12,12,0,0,20,0,4,22,15,15,18,9,0,0,22,0,0,0,9,16,19,0,0,22,0,0,0,22,0,0,9,22,15,12,12,4,0,0,9,16,9,0,9,0,19,0,0,0,0,0,0,0,0,0,0,0,0,0,0,0,0,0,0,0,0,0,0,0,0,0,0,0,0,0,0,0,0,0],"split_type":[0,0,0,0,0,0,0,0,0,0,0,0,0,0,0,0,0,0,0,0,0,0,0,0,0,0,0,0,0,0,0,0,0,0,0,0,0,0,0,0,0,0,0,0,0,0,0,0,0,0,0,0,0,0,0,0,0,0,0,0,0,0,0,0,0,0,0,0,0,0,0,0,0,0,0,0,0,0,0,0,0,0,0,0,0],"sum_hessian":[8.024101E3,6.9405776E3,1.0835234E3,1.0665623E3,5.8740156E3,6.7514166E2,4.083818E2,4.0655194E2,6.600103E2,2.6989368E2,5.6041216E3,6.5832086E2,1.6820822E1,2.3206262E2,1.7631918E2,3.8521796E2,2.1333988E1,5.7278827E2,8.722201E1,3.678758E2,5.236246E3,6.451559E2,1.316498E1,2.2029212E0,1.4617901E1,5.9835175E1,1.7222746E2,1.5127893E2,2.5040257E1,1.7163168E0,3.8350162E2,1.4518617E1,6.815372E0,2.7574293E1,5.45214E2,2.9186384E1,5.8035625E1,2.2607889E2,1.4179692E2,3.3538562E3,1.8823896E3,6.2285895E2,2.2296928E1,1.4239136E0,1.1741067E1,1.2853312E1,4.698186E1,1.3269049E2,3.9536964E1,1.4694121E2,4.3377223E0,1.3345936E1,1.1694321E1,3.8177008E2,1.7315439E0,1.59995365E1,1.1574758E1,6.4736667E0,5.3874036E2,7.875194E0,5.016043E1,1.2070729E0,2.2487181E2,2.620842E1,1.155885E2,2.6089846E3,7.4487177E2,2.7443097E2,1.6079587E3,6.211499E2,1.7090157E0,2.1070505E1,1.2264235E0,4.1900434E0,8.663268E0,3.5483556E0,4.3433506E1,6.716565E1,6.552484E1,3.4013374E1,1.1292783E2,1.4141423E0,2.9235802E0,6.1924934E0,7.1534424E0],"tree_param":{"num_deleted":"0","num_feature":"23","num_nodes":"85","size_leaf_vector":"1"}},{"base_weights":[-2.0086786E-3,-1.1610545E-1,1.0949047E0,7.040968E-2,-1.8101545E-1,1.266696E0,3.9003596E-1,-3.4189364E-1,3.8085744E-1,1.2952999E0,9.8782223E-1,-3.0051002E-1,1.1739466E0,9.025201E-1,-4.183462E-1,3.9945254E-1,-8.0998205E-2,1.2989426E0,2.895607E-2,1.1382332E0,-6.1611604E-2,2.2883867E-1,-1.1957444E0,6.2037844E-2,1.7918263E-1,-9.969189E-2,9.43092E-1,-5.112971E-1,3.6459308E-2,4.1351676E-1,-9.187114E-2,1.2896467E0,8.848294E-2,1.2031341E0,-4.907018E-2,4.9357742E-1,-7.00808E-2,5.4070234E-2,-7.608476E-2,-5.1054258E-2,4.82956E-2,3.101015E-2,5.7325404E-2,-2.7850503E-2,1.0672997E-2,5.4177463E-2,-2.243565E-2,2.8354881E-2,1.5838189E-2,6.478866E-2,3.588025E-2,-4.6536088E-2,6.3358895E-2,3.3340182E-2,-6.0061168E-2],"categories":[],"categories_nodes":[],"categories_segments":[],"categories_sizes":[],"default_left":[0,0,0,0,0,0,0,0,0,0,0,0,0,0,0,0,0,0,0,0,0,0,0,0,0,0,0,0,0,0,0,0,0,0,0,0,0,0,0,0,0,0,0,0,0,0,0,0,0,0,0,0,0,0,0],"id":15,"left_children":[1,3,5,-1,7,9,11,13,15,17,19,21,23,25,27,29,-1,31,-1,33,-1,35,37,-1,39,-1,41,43,45,47,-1,49,-1,51,-1,53,-1,-1,-1,-1,-1,-1,-1,-1,-1,-1,-1,-1,-1,-1,-1,-1,-1,-1,-1],"loss_changes":[9.818723E2,7.0335095E2,8.9010376E1,0E0,6.163191E2,3.4576416E0,7.9543655E1,5.0460663E2,5.7118576E1,6.4453125E-1,2.1256962E1,3.7508717E1,4.3446655E0,3.796559E1,2.111319E2,4.809613E1,0E0,4.510498E-2,0E0,8.91275E0,0E0,2.2367325E1,2.3435429E1,0E0,6.1737347E0,0E0,1.9224213E1,1.3749585E2,4.314698E2,2.2051025E1,0E0,9.110718E-1,0E0,8.693634E0,0E0,1.3701365E1,0E0,0E0,0E0,0E0,0E0,0E0,0E0,0E0,0E0,0E0,0E0,0E0,0E0,0E0,0E0,0E0,0E0,0E0,0E0],"parents":[2147483647,0,0,1,1,2,2,4,4,5,5,6,6,7,7,8,8,9,9,10,10,11,11,12,12,13,13,14,14,15,15,17,17,19,19,21,21,22,22,24,24,26,26,27,27,28,28,29,29,31,31,33,33,35,35],"right_children":[2,4,6,-1,8,10,12,14,16,18,20,22,24,26,28,30,-1,32,-1,34,-1,36,38,-1,40,-1,42,44,46,48,-1,50,-1,52,-1,54,-1,-1,-1,-1,-1,-1,-1,-1,-1,-1,-1,-1,-1,-1,-1,-1,-1,-1,-1],"split_conditions":[1.2893E2,3.2E1,8.495E1,7.040968E-2,2.5881904E-1,7.358E1,2.8975E2,2.01E0,1.1715667E2,7.811E1,1.4112E2,1.1969E2,2.0896E2,1.128E3,5.139E1,3.327169E2,-8.0998205E-2,4.9734E2,2.895607E-2,6.6E1,-6.1611604E-2,2.1086662E2,3.2E1,6.2037844E-2,5.1824E2,-9.969189E-2,1.08E1,1.386E3,2.587E1,4.953E3,-9.187114E-2,1.4112E2,8.848294E-2,1.127E3,-4.907018E-2,5.7E1,-7.00808E-2,5.4070234E-2,-7.608476E-2,-5.1054258E-2,4.82956E-2,3.101015E-2,5.7325404E-2,-2.7850503E-2,1.0672997E-2,5.4177463E-2,-2.243565E-2,2.8354881E-2,1.5838189E-2,6.478866E-2,3.588025E-2,-4.6536088E-2,6.3358895E-2,3.3340182E-2,-6.0061168E-2],"split_indices":[0,16,21,0,5,19,0,0,22,21,20,19,21,14,0,9,0,20,0,16,0,9,16,0,0,0,20,14,22,17,0,20,0,14,0,11,0,0,0,0,0,0,0,0,0,0,0,0,0,0,0,0,0,0,0],"split_type":[0,0,0,0,0,0,0,0,0,0,0,0,0,0,0,0,0,0,0,0,0,0,0,0,0,0,0,0,0,0,0,0,0,0,0,0,0,0,0,0,0,0,0,0,0,0,0,0,0,0,0,0,0,0,0],"sum_hessian":[7.8432812E3,7.105127E3,7.381543E2,2.8935806E2,6.815769E3,5.9286383E2,1.4529045E2,5.2989414E3,1.5168275E3,5.344054E2,5.8458454E1,7.7573074E1,6.7717384E1,3.060806E2,4.992861E3,1.5036533E3,1.31741905E1,5.308914E2,3.5139956E0,5.520552E1,3.252936E0,4.9216137E1,2.8356936E1,6.3223858E1,4.493523E0,3.5632422E0,3.0251736E2,4.1455E3,8.4736115E2,1.4950682E3,8.585026E0,5.242776E2,6.6138206E0,5.3984947E1,1.2205706E0,4.2941032E1,6.2751074E0,3.260542E0,2.5096394E1,1.6612155E0,2.8323076E0,1.184874E2,1.8402995E2,3.8997598E3,2.4573996E2,2.6791614E2,5.79445E2,5.759588E2,9.191095E2,5.1747034E2,6.807243E0,1.1787268E0,5.280622E1,3.9509327E1,3.4317045E0],"tree_param":{"num_deleted":"0","num_feature":"23","num_nodes":"55","size_leaf_vector":"1"}},{"base_weights":[3.1344216E-2,-1.7015305E-1,1.2656267E0,6.233245E-1,-3.1667137E-1,-4.4206962E-2,1.2696463E0,1.0799402E0,4.3395633E-1,6.882436E-2,-3.987063E-1,1.0118784E0,6.460413E-2,1.290939E0,9.50476E-1,-8.7698594E-2,4.6320167E-1,8.212404E-1,-5.13814E-1,1.337557E0,6.055004E-1,1.3394549E0,6.9588475E-2,-6.330108E-2,9.7090155E-1,5.922938E-1,-1.1102233E-2,9.366327E-1,7.122736E-2,-5.529127E-1,2.106335E-1,3.3684645E-2,6.8688445E-2,1.081226E0,-9.101366E-1,3.4792602E-2,6.774167E-2,-8.6245105E-2,5.2413154E-2,6.119896E-2,3.9791822E-2,-6.11222E-3,3.423682E-2,-5.1480837E-2,2.0739483E-2,6.2333584E-2,3.841663E-2,-6.399995E-2,4.08781E-2,-1.3307652E-2,-3.145961E-2,-6.3586384E-2,2.2915794E-2,5.987667E-2,-5.8380593E-2,-9.35349E-2,5.3205248E-2],"categories":[],"categories_nodes":[],"categories_segments":[],"categories_sizes":[],"default_left":[0,0,0,0,0,0,0,0,0,0,0,0,0,0,0,0,0,0,0,0,0,0,0,0,0,0,0,0,0,0,0,0,0,0,0,0,0,0,0,0,0,0,0,0,0,0,0,0,0,0,0,0,0,0,0,0,0],"id":16,"left_children":[1,3,5,7,9,-1,11,13,15,-1,17,19,-1,21,23,-1,25,27,29,31,33,35,37,-1,39,41,43,45,47,49,51,-1,-1,53,55,-1,-1,-1,-1,-1,-1,-1,-1,-1,-1,-1,-1,-1,-1,-1,-1,-1,-1,-1,-1,-1,-1],"loss_changes":[1.9659178E3,7.902277E2,1.0708496E1,9.114902E1,7.973911E2,0E0,5.098633E0,7.2393494E0,4.8841995E1,0E0,7.689056E2,1.1538849E1,0E0,6.724823E0,1.00967865E1,0E0,4.540828E1,4.0802338E1,1.4177881E2,2.997589E-1,3.2230957E1,1.5203857E-1,1.1381035E1,0E0,7.6497498E0,3.858551E1,6.966732E1,2.0392822E1,6.5637085E1,1.0363513E2,9.487766E1,0E0,0E0,1.0144905E1,2.2653273E1,0E0,0E0,0E0,0E0,0E0,0E0,0E0,0E0,0E0,0E0,0E0,0E0,0E0,0E0,0E0,0E0,0E0,0E0,0E0,0E0,0E0,0E0],"parents":[2147483647,0,0,1,1,2,2,3,3,4,4,6,6,7,7,8,8,10,10,11,11,13,13,14,14,16,16,17,17,18,18,19,19,20,20,21,21,22,22,24,24,25,25,26,26,27,27,28,28,29,29,30,30,33,33,34,34],"right_children":[2,4,6,8,10,-1,12,14,16,-1,18,20,-1,22,24,-1,26,28,30,32,34,36,38,-1,40,42,44,46,48,50,52,-1,-1,54,56,-1,-1,-1,-1,-1,-1,-1,-1,-1,-1,-1,-1,-1,-1,-1,-1,-1,-1,-1,-1,-1,-1],"split_conditions":[2.0355577E0,1E1,2.7466297E0,5E0,3.2E1,-4.4206962E-2,2.4384959E0,4.8E1,3.76E0,6.882436E-2,1.8871625E-1,1.6940539E0,6.460413E-2,3.6052176E-1,3.05E2,-8.7698594E-2,3.84331E1,-4.612112E-1,1.5597143E0,-8.660254E-1,3.6098363E0,-1.4429004E2,1.5843822E0,-6.330108E-2,4.15E2,2.865E3,6.958164E1,-1.8713794E0,2.242E1,4.5E1,-8.660254E-1,3.3684645E-2,6.8688445E-2,2.2E1,3.4484334E0,3.4792602E-2,6.774167E-2,-8.6245105E-2,5.2413154E-2,6.119896E-2,3.9791822E-2,-6.11222E-3,3.423682E-2,-5.1480837E-2,2.0739483E-2,6.2333584E-2,3.841663E-2,-6.399995E-2,4.08781E-2,-1.3307652E-2,-3.145961E-2,-6.3586384E-2,2.2915794E-2,5.987667E-2,-5.8380593E-2,-9.35349E-2,5.3205248E-2],"split_indices":[2,4,1,4,16,0,2,11,22,0,2,3,0,3,15,0,12,3,2,6,1,9,2,0,15,18,9,3,20,16,5,0,0,4,3,0,0,0,0,0,0,0,0,0,0,0,0,0,0,0,0,0,0,0,0,0,0],"split_type":[0,0,0,0,0,0,0,0,0,0,0,0,0,0,0,0,0,0,0,0,0,0,0,0,0,0,0,0,0,0,0,0,0,0,0,0,0,0,0,0,0,0,0,0,0,0,0,0,0,0,0,0,0,0,0,0,0],"sum_hessian":[7.9027656E3,6.794433E3,1.1083325E3,1.0585494E3,5.7358833E3,1.6597894E0,1.1066727E3,3.0893185E2,7.496176E2,2.6433643E2,5.471547E3,9.2304596E1,1.01436816E3,1.1406282E2,1.9486903E2,9.109839E0,7.4050775E2,4.712249E2,5.0003223E3,4.9967968E1,4.2336628E1,1.09611984E2,4.4508386E0,1.2225324E0,1.936465E2,5.8188605E2,1.5862175E2,4.0817664E2,6.30483E1,4.7444966E3,2.558258E2,3.598661E0,4.636931E1,3.244079E1,9.89584E0,3.6372657E0,1.0597472E2,1.3016517E0,3.1491868E0,7.6731E1,1.169155E2,6.6620224E1,5.152658E2,4.6352596E1,1.1226915E2,1.4135954E2,2.6681708E2,2.2178839E1,4.0869465E1,9.97827E2,3.7466694E3,3.603348E1,2.1979233E2,3.1289995E1,1.1507952E0,6.692211E0,3.2036285E0],"tree_param":{"num_deleted":"0","num_feature":"23","num_nodes":"57","size_leaf_vector":"1"}},{"base_weights":[3.0954212E-2,-1.6745779E-1,1.2470735E0,6.779624E-2,-2.4021532E-1,8.0959016E-1,6.367912E-2,3.706713E-1,-4.3678224E-1,-5.9206743E-2,9.279709E-1,8.552455E-1,1.293138E-1,8.074423E-1,-5.45241E-1,9.899352E-1,-6.045726E-2,1.0329089E0,6.349517E-1,1.6105378E-1,-7.7773586E-2,1.1202248E0,5.2087504E-1,-6.458052E-1,-3.112405E-1,6.634297E-2,5.189272E-1,5.3685226E-2,-8.0904655E-2,-8.23209E-2,3.377801E-2,5.8046293E-2,5.8866763E-3,5.7110738E-2,9.377008E-3,4.0682435E-2,-2.3916442E-2,-3.3886757E-2,1.4613623E-2,4.6165325E-3,-2.2765538E-2,-2.870129E-2,4.6294354E-2],"categories":[],"categories_nodes":[],"categories_segments":[],"categories_sizes":[],"default_left":[0,0,0,0,0,0,0,0,0,0,0,0,0,0,0,0,0,0,0,0,0,0,0,0,0,0,0,0,0,0,0,0,0,0,0,0,0,0,0,0,0,0,0],"id":17,"left_children":[1,3,5,-1,7,9,-1,11,13,-1,15,17,19,21,23,25,-1,27,29,31,-1,33,35,37,39,-1,41,-1,-1,-1,-1,-1,-1,-1,-1,-1,-1,-1,-1,-1,-1,-1,-1],"loss_changes":[1.8882681E3,7.4605115E2,1.1698853E1,0E0,7.713468E2,1.6548E1,0E0,1.8280542E2,6.561854E2,0E0,9.453575E0,1.9688599E1,5.61408E1,3.4375458E1,1.04993286E2,9.014362E0,0E0,3.268454E1,2.285186E1,4.4336502E1,0E0,3.5926208E0,6.04799E1,9.381958E1,7.827919E1,0E0,1.2602959E1,0E0,0E0,0E0,0E0,0E0,0E0,0E0,0E0,0E0,0E0,0E0,0E0,0E0,0E0,0E0,0E0],"parents":[2147483647,0,0,1,1,2,2,4,4,5,5,7,7,8,8,10,10,11,11,12,12,13,13,14,14,15,15,17,17,18,18,19,19,21,21,22,22,23,23,24,24,26,26],"right_children":[2,4,6,-1,8,10,-1,12,14,-1,16,18,20,22,24,26,-1,28,30,32,-1,34,36,38,40,-1,42,-1,-1,-1,-1,-1,-1,-1,-1,-1,-1,-1,-1,-1,-1,-1,-1],"split_conditions":[2.0355577E0,3.2E1,2.4384959E0,6.779624E-2,1.2E1,3.0717669E0,6.367912E-2,7E0,1.6768149E-1,-5.9206743E-2,6.4E1,5E0,1.1264667E2,-1.6392213E0,1.060848E0,1.6056667E1,-6.045726E-2,6.959333E1,3.73E0,1.1070045E-1,-7.7773586E-2,6.2E1,8.604794E-2,7.05E2,4.6E1,6.634297E-2,4.265633E0,5.3685226E-2,-8.0904655E-2,-8.23209E-2,3.377801E-2,5.8046293E-2,5.8866763E-3,5.7110738E-2,9.377008E-3,4.0682435E-2,-2.3916442E-2,-3.3886757E-2,1.4613623E-2,4.6165325E-3,-2.2765538E-2,-2.870129E-2,4.6294354E-2],"split_indices":[2,16,2,0,4,1,0,4,2,0,16,4,22,3,2,22,0,22,19,2,0,11,2,15,16,0,1,0,0,0,0,0,0,0,0,0,0,0,0,0,0,0,0],"split_type":[0,0,0,0,0,0,0,0,0,0,0,0,0,0,0,0,0,0,0,0,0,0,0,0,0,0,0,0,0,0,0,0,0,0,0,0,0,0,0,0,0,0,0],"sum_hessian":[7.8237686E3,6.7270938E3,1.0966748E3,3.0584006E2,6.4212534E3,6.445738E1,1.0322174E3,1.5629778E3,4.858276E3,3.1081564E0,6.1349224E1,5.188126E2,1.044165E3,3.8902213E2,4.4692534E3,6.0142227E1,1.2069979E0,2.8515265E2,2.3366E2,1.0257452E3,1.8419802E1,1.846123E2,2.0440982E2,3.1246453E3,1.3446084E3,3.4002384E1,2.6139843E1,2.8141696E2,3.7356687E0,3.394854E0,2.3026515E2,4.152441E1,9.842209E2,1.8014049E2,4.4718266E0,1.5823235E2,4.6177475E1,3.0220593E3,1.02586075E2,3.5382605E2,9.9078235E2,6.980939E0,1.9158903E1],"tree_param":{"num_deleted":"0","num_feature":"23","num_nodes":"43","size_leaf_vector":"1"}},{"base_weights":[2.6716886E-2,-1.6591924E-1,1.2326866E0,5.61454E-1,-3.003778E-1,-4.239174E-2,1.2365884E0,9.2878836E-1,3.2633185E-1,6.638151E-2,-3.753178E-1,9.797948E-1,6.279057E-2,1.029444E0,6.6477615E-1,-5.7398546E-1,4.3012014E-1,9.183446E-1,-4.7435355E-1,1.062842E0,-6.2137593E-2,1.0612742E0,-1.8671094E-1,9.6474195E-1,-6.588214E-3,-8.916762E-1,7.319209E-2,5.976245E-1,-2.1758349E-1,9.937629E-1,5.111307E-1,-6.95177E-2,-5.1938283E-1,1.1143563E0,-5.869372E-2,5.4809194E-2,2.2278782E-2,6.091134E-2,-7.632621E-2,-8.0423616E-2,5.200809E-2,1.8246265E-2,-1.1354444E-1,-8.9998476E-2,1.8279253E-2,-8.1388526E-2,3.1540047E-2,-4.271152E-2,3.365956E-2,5.0366808E-2,-6.0788926E-2,5.4816056E-2,-1.595336E-2,-6.803774E-2,1.470066E-3,-3.0021882E-2,-1.554209E-2,-4.8922848E-2,5.8383286E-2],"categories":[],"categories_nodes":[],"categories_segments":[],"categories_sizes":[],"default_left":[0,0,0,0,0,0,0,0,0,0,0,0,0,0,0,0,0,0,0,0,0,0,0,0,0,0,0,0,0,0,0,0,0,0,0,0,0,0,0,0,0,0,0,0,0,0,0,0,0,0,0,0,0,0,0,0,0,0,0],"id":18,"left_children":[1,3,5,7,9,-1,11,13,15,-1,17,19,-1,21,23,25,27,29,31,33,-1,35,37,39,41,43,-1,45,47,49,51,53,55,57,-1,-1,-1,-1,-1,-1,-1,-1,-1,-1,-1,-1,-1,-1,-1,-1,-1,-1,-1,-1,-1,-1,-1,-1,-1],"loss_changes":[1.8029291E3,6.54653E2,9.725586E0,8.98996E1,6.8964026E2,0E0,4.03833E0,1.0132874E1,5.9894684E1,0E0,6.923768E2,1.5880806E1,0E0,1.1535553E1,2.320177E1,4.4298668E1,6.2288803E1,1.1297333E1,9.142822E1,1.0131958E1,0E0,5.6493225E0,1.7521404E1,1.7124268E1,3.158588E1,6.697658E1,0E0,3.465468E1,6.7752014E1,1.0919678E1,3.0532143E1,6.4334366E1,7.613159E1,9.551262E0,0E0,0E0,0E0,0E0,0E0,0E0,0E0,0E0,0E0,0E0,0E0,0E0,0E0,0E0,0E0,0E0,0E0,0E0,0E0,0E0,0E0,0E0,0E0,0E0,0E0],"parents":[2147483647,0,0,1,1,2,2,3,3,4,4,6,6,7,7,8,8,10,10,11,11,13,13,14,14,15,15,16,16,17,17,18,18,19,19,21,21,22,22,23,23,24,24,25,25,27,27,28,28,29,29,30,30,31,31,32,32,33,33],"right_children":[2,4,6,8,10,-1,12,14,16,-1,18,20,-1,22,24,26,28,30,32,34,-1,36,38,40,42,44,-1,46,48,50,52,54,56,58,-1,-1,-1,-1,-1,-1,-1,-1,-1,-1,-1,-1,-1,-1,-1,-1,-1,-1,-1,-1,-1,-1,-1,-1,-1],"split_conditions":[2.0355577E0,1E1,1.459E1,6E0,3.2E1,-4.239174E-2,2.4384959E0,5E0,2.865E3,6.638151E-2,1.1070045E-1,4.3937817E1,6.279057E-2,6.8276665E1,5.032E3,6.4E1,3.84331E1,8.604794E-2,1.2E1,7E1,-6.2137593E-2,6.1E1,1E0,2.512E3,3.176E3,1.0785564E0,7.319209E-2,3.76E0,6.67402E1,1.5772E2,7.28E0,4.39E0,1.0785564E0,2.058E1,-5.869372E-2,5.4809194E-2,2.2278782E-2,6.091134E-2,-7.632621E-2,-8.0423616E-2,5.200809E-2,1.8246265E-2,-1.1354444E-1,-8.9998476E-2,1.8279253E-2,-8.1388526E-2,3.1540047E-2,-4.271152E-2,3.365956E-2,5.0366808E-2,-6.0788926E-2,5.4816056E-2,-1.595336E-2,-6.803774E-2,1.470066E-3,-3.0021882E-2,-1.554209E-2,-4.8922848E-2,5.8383286E-2],"split_indices":[2,4,0,4,16,0,2,4,18,0,2,12,0,22,17,16,12,2,4,16,0,16,4,18,18,2,0,22,12,21,19,21,2,0,0,0,0,0,0,0,0,0,0,0,0,0,0,0,0,0,0,0,0,0,0,0,0,0,0],"split_type":[0,0,0,0,0,0,0,0,0,0,0,0,0,0,0,0,0,0,0,0,0,0,0,0,0,0,0,0,0,0,0,0,0,0,0,0,0,0,0,0,0,0,0,0,0,0,0,0,0,0,0,0,0,0,0,0,0,0,0],"sum_hessian":[7.758884E3,6.6909624E3,1.0679215E3,1.043394E3,5.6475684E3,1.5941317E0,1.0663274E3,4.060565E2,6.373376E2,2.4779164E2,5.399777E3,7.788312E1,9.884443E2,2.9187778E2,1.1417871E2,6.540945E1,5.7192816E2,3.8339362E2,5.0163833E3,7.558077E1,2.3023443E0,2.8455746E2,7.3203E0,7.861605E1,3.556266E1,5.7074203E1,8.335247E0,4.5447302E2,1.17455124E2,3.222675E2,6.1126102E1,5.0236975E2,4.514013E3,7.4369736E1,1.2110348E0,2.685504E2,1.6007048E1,3.6176035E0,3.7026963E0,1.6597822E0,7.695627E1,3.1270767E1,4.291894E0,3.2885098E1,2.4189106E1,5.969789E0,4.4850323E2,6.85224E1,4.893272E1,3.2084067E2,1.426828E0,3.5665573E1,2.546053E1,3.4839317E1,4.6753043E2,3.2492356E3,1.2647778E3,1.4162585E0,7.295348E1],"tree_param":{"num_deleted":"0","num_feature":"23","num_nodes":"59","size_leaf_vector":"1"}},{"base_weights":[-3.8398218E-3,-1.9348831E-1,1.208015E0,6.561252E-2,-2.6011682E-1,7.2435206E-1,6.2065836E-2,8.227347E-1,-3.573429E-1,1.0090096E0,-8.82927E-2,8.387783E-1,-7.23201E-2,9.11435E-1,-4.5247173E-1,-5.4881543E-2,1.1533002E0,-9.148669E-2,5.6851137E-1,1.0072265E0,6.3368607E-1,9.3287385E-1,-6.4434715E-2,-4.2044375E-2,-5.3791386E-1,1.241218E0,1.8653454E-1,-5.9373755E-2,1.0801842E0,5.254441E-2,1.1342645E-2,-1.0014474E-2,3.728011E-2,-7.413822E-2,4.7431473E-2,1.2778967E-2,-1.2159424E-2,-3.13122E-2,-1.1394172E-2,2.6789293E-2,6.48201E-2,-6.939184E-2,5.009466E-2,6.4004116E-2,2.6737591E-2],"categories":[],"categories_nodes":[],"categories_segments":[],"categories_sizes":[],"default_left":[0,0,0,0,0,0,0,0,0,0,0,0,0,0,0,0,0,0,0,0,0,0,0,0,0,0,0,0,0,0,0,0,0,0,0,0,0,0,0,0,0,0,0,0,0],"id":19,"left_children":[1,3,5,-1,7,9,-1,11,13,15,17,19,-1,21,23,-1,25,-1,27,29,31,33,-1,35,37,39,41,-1,43,-1,-1,-1,-1,-1,-1,-1,-1,-1,-1,-1,-1,-1,-1,-1,-1],"loss_changes":[1.731007E3,6.537184E2,1.5516724E1,0E0,6.569827E2,1.5831951E1,0E0,1.9932922E1,6.91315E2,1.6610516E1,2.2285E1,1.7023346E1,0E0,2.0049744E1,1.8673682E2,0E0,3.82555E0,0E0,1.4086342E1,9.267517E0,2.1918365E1,1.6490051E1,0E0,5.5062702E1,1.2056885E2,1.0017853E0,8.008885E0,0E0,5.756998E-1,0E0,0E0,0E0,0E0,0E0,0E0,0E0,0E0,0E0,0E0,0E0,0E0,0E0,0E0,0E0,0E0],"parents":[2147483647,0,0,1,1,2,2,4,4,5,5,7,7,8,8,9,9,10,10,11,11,13,13,14,14,16,16,18,18,19,19,20,20,21,21,23,23,24,24,25,25,26,26,28,28],"right_children":[2,4,6,-1,8,10,-1,12,14,16,18,20,-1,22,24,-1,26,-1,28,30,32,34,-1,36,38,40,42,-1,44,-1,-1,-1,-1,-1,-1,-1,-1,-1,-1,-1,-1,-1,-1,-1,-1],"split_conditions":[2.0355577E0,3.2E1,2.4384959E0,6.561252E-2,7E0,1.85E1,6.2065836E-2,7.2E1,1.1070045E-1,1.925E1,2.4163334E1,5E0,-7.23201E-2,6.21E0,1.2E1,-5.4881543E-2,1.7623333E1,-9.148669E-2,5.1E1,6.071216E1,2.865E3,-1.159066E2,-6.4434715E-2,4.953E3,2.9335418E-1,2.892E3,3.4484334E0,-5.9373755E-2,1.1160706E2,5.254441E-2,1.1342645E-2,-1.0014474E-2,3.728011E-2,-7.413822E-2,4.7431473E-2,1.2778967E-2,-1.2159424E-2,-3.13122E-2,-1.1394172E-2,2.6789293E-2,6.48201E-2,-6.939184E-2,5.009466E-2,6.4004116E-2,2.6737591E-2],"split_indices":[2,16,2,0,4,21,0,11,2,0,22,4,0,0,4,0,22,0,11,12,18,9,0,17,3,18,3,0,9,0,0,0,0,0,0,0,0,0,0,0,0,0,0,0,0],"split_type":[0,0,0,0,0,0,0,0,0,0,0,0,0,0,0,0,0,0,0,0,0,0,0,0,0,0,0,0,0,0,0,0,0,0,0,0,0,0,0,0,0,0,0,0,0],"sum_hessian":[7.529784E3,6.511596E3,1.01818805E3,2.7513443E2,6.2364614E3,6.7055046E1,9.51133E2,5.132045E2,5.723257E3,4.9480957E1,1.757409E1,5.1022742E2,2.9771445E0,3.9858328E2,5.324674E3,2.748328E0,4.673263E1,4.323913E0,1.3250176E1,2.7799286E2,2.3223454E2,3.9530728E2,3.2760143E0,9.1773914E2,4.4069346E3,4.25768E1,4.15583E0,2.691742E0,1.05584345E1,2.629351E2,1.5057785E1,2.7384125E1,2.0485042E2,1.958259E0,3.93349E2,3.6999857E2,5.4774054E2,3.4289724E3,9.7796204E2,3.8659847E0,3.8710815E1,1.1783813E0,2.9774485E0,6.740987E0,3.8174477E0],"tree_param":{"num_deleted":"0","num_feature":"23","num_nodes":"45","size_leaf_vector":"1"}},{"base_weights":[2.7112547E-2,-1.5462436E-1,1.1709806E0,6.4679764E-2,-2.1653898E-1,-6.5494046E-2,1.1810234E0,-3.962044E-1,3.5046506E-1,8.055556E-1,6.1275728E-2,7.6326346E-1,-4.8503363E-1,1.5521777E-1,7.7546424E-1,1.2349219E0,2.3685765E-1,1.019811E0,3.9587116E-1,-5.21947E-1,1.0587191E-1,-7.872482E-2,3.4311175E-1,7.905453E-1,-6.719058E-2,1.339694E0,5.052348E-1,8.239054E-1,-1.1658946E0,5.4814536E-2,3.7362337E-2,3.614698E-2,-6.369359E-2,-3.5744514E-2,-2.0392692E-2,4.6313774E-2,-1.5868386E-2,1.796177E-3,-6.064386E-2,2.331057E-2,-9.493186E-3,5.0854206E-2,3.350099E-2,7.010219E-2,2.4444921E-2,6.0125887E-2,-6.402351E-2,5.3491373E-2,-7.0439555E-2,-8.848814E-2,4.915997E-2],"categories":[],"categories_nodes":[],"categories_segments":[],"categories_sizes":[],"default_left":[0,0,0,0,0,0,0,0,0,0,0,0,0,0,0,0,0,0,0,0,0,0,0,0,0,0,0,0,0,0,0,0,0,0,0,0,0,0,0,0,0,0,0,0,0,0,0,0,0,0,0],"id":20,"left_children":[1,3,5,-1,7,-1,9,11,13,15,-1,17,19,21,23,25,27,29,31,33,35,37,39,41,-1,43,45,47,49,-1,-1,-1,-1,-1,-1,-1,-1,-1,-1,-1,-1,-1,-1,-1,-1,-1,-1,-1,-1,-1,-1],"loss_changes":[1.552009E3,5.779419E2,2.7048096E1,0E0,6.296098E2,0E0,1.6050781E1,4.8369684E2,1.2330066E2,2.680458E1,0E0,3.1107666E1,9.514429E1,4.488031E1,1.6018585E1,4.1391296E0,4.129255E1,3.2712402E0,7.6886345E1,9.003552E1,8.958294E1,5.924834E1,3.722876E1,1.2022369E1,0E0,2.2045288E0,1.3387138E1,2.0786924E1,2.102977E1,0E0,0E0,0E0,0E0,0E0,0E0,0E0,0E0,0E0,0E0,0E0,0E0,0E0,0E0,0E0,0E0,0E0,0E0,0E0,0E0,0E0,0E0],"parents":[2147483647,0,0,1,1,2,2,4,4,6,6,7,7,8,8,9,9,11,11,12,12,13,13,14,14,15,15,16,16,17,17,18,18,19,19,20,20,21,21,22,22,23,23,25,25,26,26,27,27,28,28],"right_children":[2,4,6,-1,8,-1,10,12,14,16,-1,18,20,22,24,26,28,30,32,34,36,38,40,42,-1,44,46,48,50,-1,-1,-1,-1,-1,-1,-1,-1,-1,-1,-1,-1,-1,-1,-1,-1,-1,-1,-1,-1,-1,-1],"split_conditions":[1.8844136E0,3.2E1,1.503E1,6.4679764E-2,2.5881904E-1,-6.5494046E-2,2.4384959E0,1.4144623E-1,-1.8369701E-16,1.6940539E0,6.1275728E-2,-1.1840215E0,1.386E3,5.1E1,7.2E1,6.11E2,3.678E1,-1.6392213E0,8.604794E-2,3.9473686E-1,2.5581396E-1,6E0,1.1134866E0,4.8E1,-6.719058E-2,0E0,-1.0395833E1,7.1428573E-1,3.4484334E0,5.4814536E-2,3.7362337E-2,3.614698E-2,-6.369359E-2,-3.5744514E-2,-2.0392692E-2,4.6313774E-2,-1.5868386E-2,1.796177E-3,-6.064386E-2,2.331057E-2,-9.493186E-3,5.0854206E-2,3.350099E-2,7.010219E-2,2.4444921E-2,6.0125887E-2,-6.402351E-2,5.3491373E-2,-7.0439555E-2,-8.848814E-2,4.915997E-2],"split_indices":[2,16,0,0,5,0,2,2,6,3,0,3,14,16,11,15,0,3,2,10,10,7,2,11,0,5,9,10,3,0,0,0,0,0,0,0,0,0,0,0,0,0,0,0,0,0,0,0,0,0,0],"split_type":[0,0,0,0,0,0,0,0,0,0,0,0,0,0,0,0,0,0,0,0,0,0,0,0,0,0,0,0,0,0,0,0,0,0,0,0,0,0,0,0,0,0,0,0,0,0,0,0,0,0,0],"sum_hessian":[7.4639097E3,6.441374E3,1.0225359E3,2.6327698E2,6.178097E3,3.600803E0,1.0189351E3,4.691737E3,1.48636E3,1.0997185E2,9.0896326E2,3.3332526E2,4.3584116E3,1.0194044E3,4.6695557E2,6.199454E1,4.797731E1,1.9522507E2,1.3810017E2,4.102263E3,2.5614847E2,4.5432077E2,5.650836E2,4.642787E2,2.6768873E0,5.347968E1,8.514861E0,3.411354E1,1.3863768E1,1.5008899E2,4.5136074E1,1.1595417E2,2.214601E1,1.5224242E3,2.579839E3,8.676857E1,1.693799E2,4.1349048E2,4.0830296E1,4.591585E2,1.05925125E2,1.5864737E2,3.0563132E2,4.9224392E1,4.255287E0,6.358556E0,2.1563058E0,3.1198046E1,2.9154956E0,1.0960511E1,2.903257E0],"tree_param":{"num_deleted":"0","num_feature":"23","num_nodes":"51","size_leaf_vector":"1"}},{"base_weights":[1.1543889E-2,-1.5331194E-1,1.1768224E0,6.366135E-2,-2.0901494E-1,8.080018E-1,6.0572922E-2,7.697424E-1,-2.7414864E-1,8.8553065E-1,-6.0779225E-2,8.2346123E-1,-8.4513776E-2,-1.0689034E-2,-3.3308363E-1,-5.4920115E-2,9.716726E-1,-7.962415E-2,8.461167E-1,-2.2491382E-1,2.5071415E-1,-5.477703E-1,-1.7804801E-1,1.020101E0,-5.5226553E-2,5.848155E-2,3.4133032E-2,-5.506357E-2,-6.6064335E-3,7.161678E-3,6.285206E-2,6.5155335E-2,-2.8643766E-2,-3.3152883E-3,-2.5808139E-2,5.9381545E-2,2.7063707E-2],"categories":[],"categories_nodes":[],"categories_segments":[],"categories_sizes":[],"default_left":[0,0,0,0,0,0,0,0,0,0,0,0,0,0,0,0,0,0,0,0,0,0,0,0,0,0,0,0,0,0,0,0,0,0,0,0,0],"id":21,"left_children":[1,3,5,-1,7,9,-1,11,13,15,-1,17,-1,19,21,-1,23,-1,25,27,29,31,33,35,-1,-1,-1,-1,-1,-1,-1,-1,-1,-1,-1,-1,-1],"loss_changes":[1.4062661E3,5.0987152E2,1.0610962E1,0E0,3.9374094E2,1.3767139E1,0E0,5.2325867E1,8.98757E1,1.448032E1,0E0,2.2029602E1,0E0,5.937102E1,1.5734845E2,0E0,8.743126E0,0E0,1.9031982E1,4.7232586E1,5.1471466E1,9.289398E1,1.0379996E2,5.3368073E0,0E0,0E0,0E0,0E0,0E0,0E0,0E0,0E0,0E0,0E0,0E0,0E0,0E0],"parents":[2147483647,0,0,1,1,2,2,4,4,5,5,7,7,8,8,9,9,11,11,13,13,14,14,16,16,18,18,19,19,20,20,21,21,22,22,23,23],"right_children":[2,4,6,-1,8,10,-1,12,14,16,-1,18,-1,20,22,-1,24,-1,26,28,30,32,34,36,-1,-1,-1,-1,-1,-1,-1,-1,-1,-1,-1,-1,-1],"split_conditions":[2.0355577E0,3.2E1,2.4384959E0,6.366135E-2,1.4144623E-1,4.3937817E1,6.0572922E-2,-3.6608508E-1,-4.907802E-1,2.058E1,-6.0779225E-2,-1.0937935E2,-8.4513776E-2,6.123234E-17,8.9048064E-1,-5.4920115E-2,7E1,-7.962415E-2,-1.8713794E0,4.1E0,1.386E3,1.923077E-2,6.11E2,5.762712E-1,-5.5226553E-2,5.848155E-2,3.4133032E-2,-5.506357E-2,-6.6064335E-3,7.161678E-3,6.285206E-2,6.5155335E-2,-2.8643766E-2,-3.3152883E-3,-2.5808139E-2,5.9381545E-2,2.7063707E-2],"split_indices":[2,16,2,0,2,12,0,3,3,0,0,9,0,6,2,0,16,0,3,21,14,10,15,10,0,0,0,0,0,0,0,0,0,0,0,0,0],"split_type":[0,0,0,0,0,0,0,0,0,0,0,0,0,0,0,0,0,0,0,0,0,0,0,0,0,0,0,0,0,0,0,0,0,0,0,0,0],"sum_hessian":[7.318437E3,6.4121562E3,9.0628064E2,2.4014893E2,6.1720073E3,7.989103E1,8.2638965E2,3.844282E2,5.787579E3,7.748478E1,2.4062476E0,3.7686398E2,7.564218E0,1.0582079E3,4.729371E3,2.7353728E0,7.4749405E1,2.8574653E0,3.740065E2,5.8166345E2,4.7654446E2,1.9821046E3,2.7472666E3,7.354266E1,1.2067462E0,1.2347252E2,2.50534E2,5.4647522E1,5.270159E2,4.3159082E2,4.495366E1,2.584392E1,1.9562607E3,2.065758E3,6.815085E2,5.338445E1,2.0158215E1],"tree_param":{"num_deleted":"0","num_feature":"23","num_nodes":"37","size_leaf_vector":"1"}},{"base_weights":[3.66449E-2,-1.3262816E-1,1.1060429E0,6.289703E-2,-1.8698984E-1,-7.4004695E-2,1.1284877E0,7.127751E-1,-2.5936908E-1,7.215796E-1,5.99758E-2,7.718054E-1,-7.577818E-2,-5.9492588E-2,-3.3114812E-1,8.65885E-1,-8.9338136E-1,1.1258763E0,6.255263E-1,-2.3803142E-1,4.1592452E-1,-6.0067385E-1,-1.7712612E-1,1.3102082E0,4.4843075E-1,4.8820075E-2,-7.658665E-2,5.783195E-2,-4.8086364E-2,-1.00817315E-1,3.2871116E-2,-8.927113E-3,-6.3056655E-2,1.3113022E-2,7.727759E-2,2.1834668E-2,-3.216354E-2,3.7214007E-2,-1.0487687E-2,7.012335E-2,-5.782274E-2,4.2427663E-2,-9.5415255E-3],"categories":[],"categories_nodes":[],"categories_segments":[],"categories_sizes":[],"default_left":[0,0,0,0,0,0,0,0,0,0,0,0,0,0,0,0,0,0,0,0,0,0,0,0,0,0,0,0,0,0,0,0,0,0,0,0,0,0,0,0,0,0,0],"id":22,"left_children":[1,3,5,-1,7,-1,9,11,13,15,-1,17,-1,19,21,23,25,27,29,31,33,35,37,39,41,-1,-1,-1,-1,-1,-1,-1,-1,-1,-1,-1,-1,-1,-1,-1,-1,-1,-1],"loss_changes":[1.3287792E3,4.7931464E2,5.9897217E1,0E0,3.97443E2,0E0,2.7893677E1,6.094539E1,8.09913E1,3.5821693E1,0E0,2.2259064E1,0E0,1.26842575E2,1.7235336E2,2.5113655E1,1.680693E1,9.356293E0,2.7953117E1,6.588309E1,7.042147E1,6.701935E1,7.9675316E1,1.6778305E1,1.8824257E1,0E0,0E0,0E0,0E0,0E0,0E0,0E0,0E0,0E0,0E0,0E0,0E0,0E0,0E0,0E0,0E0,0E0,0E0],"parents":[2147483647,0,0,1,1,2,2,4,4,6,6,7,7,8,8,9,9,11,11,13,13,14,14,15,15,16,16,17,17,18,18,19,19,20,20,21,21,22,22,23,23,24,24],"right_children":[2,4,6,-1,8,-1,10,12,14,16,-1,18,-1,20,22,24,26,28,30,32,34,36,38,40,42,-1,-1,-1,-1,-1,-1,-1,-1,-1,-1,-1,-1,-1,-1,-1,-1,-1,-1],"split_conditions":[1.8097992E0,3.2E1,1.567E1,6.289703E-2,1.8871625E-1,-7.4004695E-2,2.4384959E0,-3.4116203E-1,-3.2898778E-1,4.239E1,5.99758E-2,-1.8713794E0,-7.577818E-2,7.0710677E-1,8.9048064E-1,1.4056761E0,3.161E1,1.6768149E-1,5.6603774E-2,6.947E1,1.386E3,1.127E3,9.003404E-1,6.11E2,1.583E1,4.8820075E-2,-7.658665E-2,5.783195E-2,-4.8086364E-2,-1.00817315E-1,3.2871116E-2,-8.927113E-3,-6.3056655E-2,1.3113022E-2,7.727759E-2,2.1834668E-2,-3.216354E-2,3.7214007E-2,-1.0487687E-2,7.012335E-2,-5.782274E-2,4.2427663E-2,-9.5415255E-3],"split_indices":[2,16,0,0,2,0,2,3,3,21,0,3,0,6,2,3,0,2,10,21,14,14,2,15,21,0,0,0,0,0,0,0,0,0,0,0,0,0,0,0,0,0,0],"split_type":[0,0,0,0,0,0,0,0,0,0,0,0,0,0,0,0,0,0,0,0,0,0,0,0,0,0,0,0,0,0,0,0,0,0,0,0,0,0,0,0,0,0,0],"sum_hessian":[7.3386895E3,6.3365625E3,1.002127E3,2.3756342E2,6.098999E3,8.063756E0,9.940633E2,4.5343118E2,5.645568E3,1.4939046E2,8.446728E2,4.423662E2,1.1064961E1,1.4922015E3,4.1533667E3,1.3756236E2,1.1828095E1,1.2736949E2,3.1499673E2,1.0851732E3,4.0702823E2,1.509306E3,2.6440605E3,6.560074E1,7.196162E1,2.875617E0,8.952478E0,1.2595932E2,1.4101695E0,3.0154781E0,3.1198126E2,1.0266522E3,5.8521088E1,3.5937442E2,4.7653816E1,5.9166523E1,1.4501395E3,8.967996E1,2.5543806E3,6.365146E1,1.9492775E0,4.405782E1,2.79038E1],"tree_param":{"num_deleted":"0","num_feature":"23","num_nodes":"43","size_leaf_vector":"1"}},{"base_weights":[2.9370723E-2,-1.1854604E-1,1.15233E0,3.9511698E-1,-2.8294837E-1,7.608675E-1,1.1872256E0,7.880445E-1,2.0996314E-1,7.148915E-1,-3.7264863E-1,1.1931058E0,1.7206265E-1,6.151007E-1,5.948905E-2,3.4672496E-1,8.695081E-1,3.7526137E-1,-6.989646E-2,7.5993955E-1,-6.09246E-1,-4.5204934E-1,-8.4995E-2,1.795943E-2,6.279141E-2,8.1873196E-1,-8.660319E-2,1.3351309E-2,4.009393E-2,1.2452787E0,-1.0807267E0,4.153612E-1,9.8512334E-1,2.0656407E-1,6.5473604E-1,1.0813154E-1,-1.3338729E0,7.848452E-1,-6.1199196E-2,5.4683533E-2,-6.8461895E-2,-2.5230634E-1,-5.724982E-1,2.5568366E-1,-2.8816596E-1,-6.1743814E-2,1.0199049E0,6.703209E-2,9.241356E-3,4.8567176E-2,-9.175906E-2,3.0051455E-2,-1.2953992E-1,5.0224867E-2,-6.0451567E-2,1.39668705E-2,-9.328191E-2,4.4460114E-2,4.2225583E-3,2.6602441E-2,-1.10692E-2,8.744709E-3,-9.502535E-2,3.7394043E-2,1.1473661E-1,-7.08564E-2,-1.0694954E-2,2.6810957E-2,-2.9756058E-2,-3.2347857E-4,4.841379E-2,2.7901977E-2,-2.1928227E-2,-3.6776543E-2,5.735607E-2],"categories":[],"categories_nodes":[],"categories_segments":[],"categories_sizes":[],"default_left":[0,0,0,0,0,0,0,0,0,0,0,0,0,0,0,0,0,0,0,0,0,0,0,0,0,0,0,0,0,0,0,0,0,0,0,0,0,0,0,0,0,0,0,0,0,0,0,0,0,0,0,0,0,0,0,0,0,0,0,0,0,0,0,0,0,0,0,0,0,0,0,0,0,0,0],"id":23,"left_children":[1,3,5,7,9,11,13,15,17,19,21,23,25,27,-1,29,31,33,35,37,39,41,43,-1,-1,45,-1,-1,-1,47,49,51,53,55,57,59,61,63,-1,-1,-1,65,67,69,71,-1,73,-1,-1,-1,-1,-1,-1,-1,-1,-1,-1,-1,-1,-1,-1,-1,-1,-1,-1,-1,-1,-1,-1,-1,-1,-1,-1,-1,-1],"loss_changes":[1.204942E3,5.414193E2,1.0630127E1,1.12932816E2,4.3494794E2,1.8090256E1,3.988037E-1,1.7586212E1,4.8970577E1,2.4376602E1,1.0174817E2,1.7084274E0,4.032903E1,1.4405584E-1,0E0,1.0292462E2,2.160965E1,3.1231781E1,8.8738686E1,2.0139694E1,1.9286549E1,8.3875244E1,6.688519E1,0E0,0E0,1.128541E1,0E0,0E0,0E0,4.7141495E0,4.9976315E1,5.001778E1,1.5392731E1,6.3305527E1,3.3348923E1,4.8453835E1,4.1951744E1,1.9712936E1,0E0,0E0,0E0,5.8549156E1,5.494287E1,6.746861E1,7.725841E1,0E0,5.902109E0,0E0,0E0,0E0,0E0,0E0,0E0,0E0,0E0,0E0,0E0,0E0,0E0,0E0,0E0,0E0,0E0,0E0,0E0,0E0,0E0,0E0,0E0,0E0,0E0,0E0,0E0,0E0,0E0],"parents":[2147483647,0,0,1,1,2,2,3,3,4,4,5,5,6,6,7,7,8,8,9,9,10,10,11,11,12,12,13,13,15,15,16,16,17,17,18,18,19,19,20,20,21,21,22,22,25,25,29,29,30,30,31,31,32,32,33,33,34,34,35,35,36,36,37,37,41,41,42,42,43,43,44,44,46,46],"right_children":[2,4,6,8,10,12,14,16,18,20,22,24,26,28,-1,30,32,34,36,38,40,42,44,-1,-1,46,-1,-1,-1,48,50,52,54,56,58,60,62,64,-1,-1,-1,66,68,70,72,-1,74,-1,-1,-1,-1,-1,-1,-1,-1,-1,-1,-1,-1,-1,-1,-1,-1,-1,-1,-1,-1,-1,-1,-1,-1,-1,-1,-1,-1],"split_conditions":[2.0355577E0,1.2E1,2.4384959E0,7E0,1.8871625E-1,1.6940539E0,2.79E2,2.865E3,1.09971886E2,-3.357477E-1,3.16273E-1,-8.660254E-1,1.5326667E1,2.8975E2,5.948905E-2,1.1669412E1,1.0113334E1,4.7537766E1,1.1391841E0,1.036E1,2.865E3,2.968E3,2.0998947E1,1.795943E-2,6.279141E-2,3.176E3,-8.660319E-2,1.3351309E-2,4.009393E-2,6.4705884E-1,7.1428575E-2,5.6E1,7E1,9.298246E-1,2.326E1,4.953E3,1.6949153E-1,9.5E0,-6.1199196E-2,5.4683533E-2,-6.8461895E-2,3.9E1,2.2727273E-2,-1.1364815E0,1.4E1,-6.1743814E-2,1.831E1,6.703209E-2,9.241356E-3,4.8567176E-2,-9.175906E-2,3.0051455E-2,-1.2953992E-1,5.0224867E-2,-6.0451567E-2,1.39668705E-2,-9.328191E-2,4.4460114E-2,4.2225583E-3,2.6602441E-2,-1.10692E-2,8.744709E-3,-9.502535E-2,3.7394043E-2,1.1473661E-1,-7.08564E-2,-1.0694954E-2,2.6810957E-2,-2.9756058E-2,-3.2347857E-4,4.841379E-2,2.7901977E-2,-2.1928227E-2,-3.6776543E-2,5.735607E-2],"split_indices":[2,4,2,4,2,3,15,18,9,3,3,6,22,0,0,12,22,9,2,0,18,18,9,0,0,18,0,0,0,10,10,11,11,10,0,17,10,0,0,0,0,11,10,9,4,0,0,0,0,0,0,0,0,0,0,0,0,0,0,0,0,0,0,0,0,0,0,0,0,0,0,0,0,0,0],"split_type":[0,0,0,0,0,0,0,0,0,0,0,0,0,0,0,0,0,0,0,0,0,0,0,0,0,0,0,0,0,0,0,0,0,0,0,0,0,0,0,0,0,0,0,0,0,0,0,0,0,0,0,0,0,0,0,0,0,0,0,0,0,0,0,0,0,0,0,0,0,0,0,0,0,0,0],"sum_hessian":[7.252298E3,6.408996E3,8.4330176E2,1.5535718E3,4.8554243E3,7.088707E1,7.724147E2,4.9655106E2,1.0570208E3,3.9990027E2,4.455524E3,4.0286594E1,3.0600475E1,4.5093694E0,7.6790533E2,7.819498E1,4.1835608E2,6.643082E2,3.927125E2,3.871551E2,1.2745184E1,3.4912632E3,9.6426086E2,3.2887046E0,3.699789E1,2.3268257E1,7.3322196E0,2.4232006E0,2.0861688E0,4.806598E1,3.0129002E1,8.58241E1,3.3253198E2,4.1533917E2,2.4896907E2,3.4503027E2,4.768222E1,3.8295203E2,4.203074E0,3.797363E0,8.947822E0,1.3144976E3,2.1767656E3,3.6013135E2,6.041295E2,1.6175579E0,2.16507E1,4.3857773E1,4.2082043E0,8.022047E0,2.2106955E1,8.158525E1,4.238841E0,3.3015894E2,2.37304E0,4.0208365E2,1.3255512E1,1.76035E2,7.293406E1,1.5063095E2,1.943993E2,1.3207142E1,3.447508E1,3.752604E2,7.69162E0,4.0813152E1,1.2736843E3,4.3073994E1,2.1336917E3,2.6400012E2,9.613123E1,9.076079E1,5.133688E2,1.1398883E0,2.051081E1],"tree_param":{"num_deleted":"0","num_feature":"23","num_nodes":"75","size_leaf_vector":"1"}},{"base_weights":[7.1240366E-3,-1.3696831E-1,1.137914E0,3.6122063E-1,-2.9774842E-1,7.323488E-1,5.8746196E-2,8.0944216E-1,2.2827716E-1,6.198748E-2,-3.6674213E-1,1.1168704E0,2.800449E-1,3.9932775E-1,9.225859E-1,2.4943234E-1,-7.829357E-2,6.793067E-1,-4.4277912E-1,1.7390983E-2,5.8999803E-2,6.908279E-1,-7.565131E-2,5.8586067E-1,-1.0363511E-1,1.1214714E0,7.73367E-1,1.8311822E-1,6.941883E-1,9.6951824E-1,4.432003E-1,-1.1565428E-1,-5.305222E-1,-5.0469793E-2,8.7154037E-1,3.4258936E-2,-9.839555E-2,5.7521433E-2,8.239037E-3,-2.8038088E-3,4.6019185E-2,1.4371904E-2,-1.1765475E-2,4.0141873E-2,-7.85924E-2,5.6993455E-2,4.0277656E-2,-1.0893619E-1,2.6591096E-2,-1.9498132E-2,1.460288E-1,-2.8506553E-2,7.985725E-3,5.1042687E-2,4.0578414E-3],"categories":[],"categories_nodes":[],"categories_segments":[],"categories_sizes":[],"default_left":[0,0,0,0,0,0,0,0,0,0,0,0,0,0,0,0,0,0,0,0,0,0,0,0,0,0,0,0,0,0,0,0,0,0,0,0,0,0,0,0,0,0,0,0,0,0,0,0,0,0,0,0,0,0,0],"id":24,"left_children":[1,3,5,7,9,11,-1,13,15,-1,17,19,21,23,25,27,-1,29,31,-1,-1,33,-1,35,-1,37,39,41,43,45,47,49,51,-1,53,-1,-1,-1,-1,-1,-1,-1,-1,-1,-1,-1,-1,-1,-1,-1,-1,-1,-1,-1,-1],"loss_changes":[1.1598263E3,5.0582895E2,1.1215332E1,9.1635666E1,5.0684796E2,1.1849945E1,0E0,1.5969574E1,4.5550854E1,0E0,3.6375537E2,1.4083252E0,2.569705E1,3.7133778E1,7.2999268E0,3.458145E1,0E0,2.0814865E1,1.2222766E2,0E0,0E0,9.457242E0,0E0,1.991731E1,0E0,3.0169525E0,1.9617744E1,4.4830044E1,3.8768517E1,2.943161E0,4.1310593E1,7.526815E2,9.192822E1,0E0,2.958559E0,0E0,0E0,0E0,0E0,0E0,0E0,0E0,0E0,0E0,0E0,0E0,0E0,0E0,0E0,0E0,0E0,0E0,0E0,0E0,0E0],"parents":[2147483647,0,0,1,1,2,2,3,3,4,4,5,5,7,7,8,8,10,10,11,11,12,12,13,13,14,14,15,15,17,17,18,18,21,21,23,23,25,25,26,26,27,27,28,28,29,29,30,30,31,31,32,32,34,34],"right_children":[2,4,6,8,10,12,-1,14,16,-1,18,20,22,24,26,28,-1,30,32,-1,-1,34,-1,36,-1,38,40,42,44,46,48,50,52,-1,54,-1,-1,-1,-1,-1,-1,-1,-1,-1,-1,-1,-1,-1,-1,-1,-1,-1,-1,-1,-1],"split_conditions":[2.0355577E0,1.2E1,2.4384959E0,6E0,3.2E1,1.5767882E0,5.8746196E-2,2.892E3,1.2858E2,6.198748E-2,1.4144623E-1,-8.660254E-1,1.85E1,4.284E1,4.8E1,5.918E1,-7.829357E-2,-1.6392213E0,4.5E1,1.7390983E-2,5.8999803E-2,8.16E0,-7.565131E-2,8.75E-1,-1.0363511E-1,1.3586733E0,1.0386666E1,2.962E1,8.909091E-1,4.9E1,6.483333E0,4.6E1,1.5597143E0,-5.0469793E-2,1.798E1,3.4258936E-2,-9.839555E-2,5.7521433E-2,8.239037E-3,-2.8038088E-3,4.6019185E-2,1.4371904E-2,-1.1765475E-2,4.0141873E-2,-7.85924E-2,5.6993455E-2,4.0277656E-2,-1.0893619E-1,2.6591096E-2,-1.9498132E-2,1.460288E-1,-2.8506553E-2,7.985725E-3,5.1042687E-2,4.0578414E-3],"split_indices":[2,4,2,4,16,3,0,18,19,0,2,6,21,19,11,20,0,3,16,0,0,19,0,10,0,2,22,22,10,11,22,11,2,0,19,0,0,0,0,0,0,0,0,0,0,0,0,0,0,0,0,0,0,0,0],"split_type":[0,0,0,0,0,0,0,0,0,0,0,0,0,0,0,0,0,0,0,0,0,0,0,0,0,0,0,0,0,0,0,0,0,0,0,0,0,0,0,0,0,0,0,0,0,0,0,0,0,0,0,0,0,0,0],"sum_hessian":[7.1162417E3,6.312715E3,8.0352686E2,1.5399182E3,4.7727964E3,6.893259E1,7.345943E2,3.5109747E2,1.1888208E3,2.0424771E2,4.568549E3,3.6463882E1,3.24687E1,7.689697E1,2.742005E2,1.1758174E3,1.3003331E1,3.0904532E2,4.2595034E3,3.2598255E0,3.3204056E1,2.6916904E1,5.5517955E0,7.221111E1,4.685858E0,1.14746185E2,1.5945432E2,1.0244773E3,1.5134015E2,1.3724435E2,1.7180098E2,9.0136005E2,3.3581433E3,2.1454937E0,2.4771412E1,7.0212204E1,1.9989035E0,1.1117851E2,3.567673E0,2.4100723E1,1.3535359E2,8.2028253E2,2.041948E2,1.4503203E2,6.308108E0,6.4392334E1,7.285201E1,4.8459544E0,1.6695502E2,8.2747345E2,7.3886566E1,3.1760608E3,1.820826E2,2.0590092E1,4.18132E0],"tree_param":{"num_deleted":"0","num_feature":"23","num_nodes":"55","size_leaf_vector":"1"}},{"base_weights":[1.5229876E-2,-1.4404108E-1,1.0311472E0,4.9131474E-1,-2.626612E-1,-7.419306E-2,1.0593338E0,8.1184953E-1,2.9417405E-1,6.817172E-1,-3.417623E-1,7.0544827E-1,5.8264073E-2,4.622845E-1,9.3471664E-1,3.209729E-1,-9.400319E-2,-6.6482043E-1,7.3623914E-1,5.832356E-1,-3.56772E-1,8.4179497E-1,-5.771428E-1,7.443042E-1,-8.841959E-1,9.514865E-1,-5.478465E-2,-7.7912256E-2,3.517681E-1,8.4816647E-1,-1.0152018E-1,7.702618E-1,-6.581052E-2,1.2753481E0,-5.2625245E-1,-7.256932E-1,-3.3069095E-1,1.350712E0,5.440235E-1,4.5394248E-1,-7.80532E-2,3.967334E-2,-6.9472246E-2,-1.1918365E-1,5.2922327E-2,5.5925895E-2,3.9772913E-2,3.6625326E-2,1.0598536E-2,7.281143E-3,6.63927E-2,3.9803315E-2,-7.1956865E-2,-7.0057444E-2,8.072519E-2,2.9122615E-2,-7.280859E-2,-4.192544E-2,4.4175178E-2,-1.7631909E-2,4.333952E-3,7.351395E-2,-5.9974056E-2,3.731012E-2,-2.4503374E-2,-6.271117E-2,5.9703033E-2],"categories":[],"categories_nodes":[],"categories_segments":[],"categories_sizes":[],"default_left":[0,0,0,0,0,0,0,0,0,0,0,0,0,0,0,0,0,0,0,0,0,0,0,0,0,0,0,0,0,0,0,0,0,0,0,0,0,0,0,0,0,0,0,0,0,0,0,0,0,0,0,0,0,0,0,0,0,0,0,0,0,0,0,0,0,0,0],"id":25,"left_children":[1,3,5,7,9,-1,11,13,15,17,19,21,-1,23,25,27,-1,29,31,33,35,37,39,41,43,45,-1,-1,47,49,-1,51,-1,53,55,57,59,61,63,65,-1,-1,-1,-1,-1,-1,-1,-1,-1,-1,-1,-1,-1,-1,-1,-1,-1,-1,-1,-1,-1,-1,-1,-1,-1,-1,-1],"loss_changes":[1.1386805E3,4.5862888E2,6.918292E1,6.026375E1,3.8324033E2,0E0,3.4562744E1,1.52039795E1,3.5238102E1,2.960585E1,6.5901184E1,3.8955566E1,0E0,3.7362797E1,1.0181305E1,3.4577927E1,0E0,3.4694996E1,2.7663437E1,5.897847E1,4.4565613E1,2.9459747E1,2.2755325E1,9.543072E0,5.2614647E1,6.061676E0,0E0,0E0,3.0682098E1,2.595726E0,0E0,2.2584824E1,0E0,4.497499E1,3.1652824E1,5.6407272E1,3.9886475E1,2.3984344E1,2.69963E1,1.5892451E1,0E0,0E0,0E0,0E0,0E0,0E0,0E0,0E0,0E0,0E0,0E0,0E0,0E0,0E0,0E0,0E0,0E0,0E0,0E0,0E0,0E0,0E0,0E0,0E0,0E0,0E0,0E0],"parents":[2147483647,0,0,1,1,2,2,3,3,4,4,6,6,7,7,8,8,9,9,10,10,11,11,13,13,14,14,15,15,17,17,18,18,19,19,20,20,21,21,22,22,23,23,24,24,25,25,28,28,29,29,31,31,33,33,34,34,35,35,36,36,37,37,38,38,39,39],"right_children":[2,4,6,8,10,-1,12,14,16,18,20,22,-1,24,26,28,-1,30,32,34,36,38,40,42,44,46,-1,-1,48,50,-1,52,-1,54,56,58,60,62,64,66,-1,-1,-1,-1,-1,-1,-1,-1,-1,-1,-1,-1,-1,-1,-1,-1,-1,-1,-1,-1,-1,-1,-1,-1,-1,-1,-1],"split_conditions":[1.6915734E0,1E1,1.365E1,6E0,1.6768149E-1,-7.419306E-2,2.4384959E0,2.892E3,3.0084558E2,1.13E3,-1.6392213E0,4.6123333E1,5.8264073E-2,2.516E1,6.4E1,3.76E0,-9.400319E-2,-1.6392213E0,-3.357477E-1,6.3796898E1,4.1E1,1.088425E0,5.651551E1,4.98E1,1.2313081E0,4E0,-5.478465E-2,-7.7912256E-2,4.6E1,2.36E0,-1.0152018E-1,1.0233E2,-6.581052E-2,1.5E1,3.9E0,3.0084558E2,9.154E1,6.14E2,7.346939E-1,7.0710677E-1,-7.80532E-2,3.967334E-2,-6.9472246E-2,-1.1918365E-1,5.2922327E-2,5.5925895E-2,3.9772913E-2,3.6625326E-2,1.0598536E-2,7.281143E-3,6.63927E-2,3.9803315E-2,-7.1956865E-2,-7.0057444E-2,8.072519E-2,2.9122615E-2,-7.280859E-2,-4.192544E-2,4.4175178E-2,-1.7631909E-2,4.333952E-3,7.351395E-2,-5.9974056E-2,3.731012E-2,-2.4503374E-2,-6.271117E-2,5.9703033E-2],"split_indices":[2,4,0,4,2,0,2,18,9,14,3,22,0,0,11,22,0,3,3,9,11,3,9,19,2,4,0,0,11,0,0,21,0,4,0,9,0,15,10,6,0,0,0,0,0,0,0,0,0,0,0,0,0,0,0,0,0,0,0,0,0,0,0,0,0,0,0],"split_type":[0,0,0,0,0,0,0,0,0,0,0,0,0,0,0,0,0,0,0,0,0,0,0,0,0,0,0,0,0,0,0,0,0,0,0,0,0,0,0,0,0,0,0,0,0,0,0,0,0,0,0,0,0,0,0,0,0,0,0,0,0,0,0,0,0,0,0],"sum_hessian":[7.035396E3,6.0826445E3,9.5275146E2,9.5646454E2,5.1261797E3,9.987088E0,9.4276434E2,3.6305252E2,5.9341205E2,3.955955E2,4.7305845E3,2.1898163E2,7.237827E2,9.565896E1,2.6739355E2,5.8702893E2,6.3831267E0,1.4958919E1,3.8063657E2,7.4931816E1,4.6556523E3,1.9825018E2,2.0731441E1,7.9462746E1,1.6196209E1,2.6573016E2,1.6633867E0,8.664986E0,5.7836395E2,7.2762046E0,7.6827135E0,3.750443E2,5.592254E0,4.6053547E1,2.8878267E1,3.056305E2,4.350022E3,7.1874466E1,1.2637572E2,1.0386111E1,1.0345329E1,7.828711E1,1.1756377E0,9.01259E0,7.1836185E0,1.2536056E2,1.4036961E2,1.5418935E2,4.241746E2,3.4812264E0,3.794978E0,3.713469E2,3.6974196E0,4.8272586E0,4.1226288E1,1.3343278E1,1.5534989E1,2.8605502E2,1.9575462E1,4.1328525E3,2.1716939E2,6.906002E1,2.8144429E0,1.0594118E2,2.0434544E1,2.9297435E0,7.456368E0],"tree_param":{"num_deleted":"0","num_feature":"23","num_nodes":"67","size_leaf_vector":"1"}},{"base_weights":[7.7666957E-3,-1.2753953E-1,1.1193811E0,5.0461406E-1,-2.4195305E-1,-4.807991E-2,1.124747E0,9.201691E-1,3.557113E-1,6.139309E-2,-3.020302E-1,7.815008E-1,5.769604E-2,9.3906283E-1,-7.461917E-2,-8.040302E-2,3.779449E-1,6.716824E-1,-3.822725E-1,-8.0456994E-2,9.2865086E-1,9.9361557E-1,8.3380096E-2,7.4862343E-1,2.6260865E-1,8.458431E-1,2.6525036E-1,-1.3036393E-1,-4.4787967E-1,9.811356E-1,-4.8320916E-2,-6.896872E-2,5.0583836E-2,6.0038675E-2,-9.947796E-2,-9.829548E-2,4.2319193E-2,3.3178758E-2,2.8359413E-3,-8.831408E-2,4.323789E-2,3.4996685E-2,-1.6216822E-2,-1.8656218E-2,1.3150297E-1,-2.4139268E-2,7.985546E-3,-4.0645365E-2,5.1426955E-2],"categories":[],"categories_nodes":[],"categories_segments":[],"categories_sizes":[],"default_left":[0,0,0,0,0,0,0,0,0,0,0,0,0,0,0,0,0,0,0,0,0,0,0,0,0,0,0,0,0,0,0,0,0,0,0,0,0,0,0,0,0,0,0,0,0,0,0,0,0],"id":26,"left_children":[1,3,5,7,9,-1,11,13,15,-1,17,19,-1,21,-1,-1,23,25,27,-1,29,31,33,35,37,39,41,43,45,47,-1,-1,-1,-1,-1,-1,-1,-1,-1,-1,-1,-1,-1,-1,-1,-1,-1,-1,-1],"loss_changes":[1.0453508E3,4.4825723E2,9.503052E0,5.8448288E1,4.637014E2,0E0,6.635437E0,1.2794464E1,3.1211525E1,0E0,3.9419122E2,2.3326283E1,0E0,1.1522476E1,0E0,0E0,2.9469124E1,2.6972534E1,7.6934814E1,0E0,6.82605E0,1.140834E1,3.9430588E1,4.5219017E1,4.3779583E1,1.4793823E1,3.013834E1,6.469827E2,7.845514E1,5.768654E0,0E0,0E0,0E0,0E0,0E0,0E0,0E0,0E0,0E0,0E0,0E0,0E0,0E0,0E0,0E0,0E0,0E0,0E0,0E0],"parents":[2147483647,0,0,1,1,2,2,3,3,4,4,6,6,7,7,8,8,10,10,11,11,13,13,16,16,17,17,18,18,20,20,21,21,22,22,23,23,24,24,25,25,26,26,27,27,28,28,29,29],"right_children":[2,4,6,8,10,-1,12,14,16,-1,18,20,-1,22,-1,-1,24,26,28,-1,30,32,34,36,38,40,42,44,46,48,-1,-1,-1,-1,-1,-1,-1,-1,-1,-1,-1,-1,-1,-1,-1,-1,-1,-1,-1],"split_conditions":[2.0355577E0,1E1,2.7831576E0,5E0,3.2E1,-4.807991E-2,2.4384959E0,6.3E1,1.59E0,6.139309E-2,1.6768149E-1,2E0,5.769604E-2,5.9742184E1,-7.461917E-2,-8.040302E-2,4.93E3,8.604794E-2,4.5E1,-8.0456994E-2,7E1,2.93E2,3.96E2,4.3E1,4.7E1,1.127E3,6.674089E1,4.6E1,1.5597143E0,1.3E1,-4.8320916E-2,-6.896872E-2,5.0583836E-2,6.0038675E-2,-9.947796E-2,-9.829548E-2,4.2319193E-2,3.3178758E-2,2.8359413E-3,-8.831408E-2,4.323789E-2,3.4996685E-2,-1.6216822E-2,-1.8656218E-2,1.3150297E-1,-2.4139268E-2,7.985546E-3,-4.0645365E-2,5.1426955E-2],"split_indices":[2,4,1,4,16,0,2,11,19,0,2,7,0,12,0,0,17,2,16,0,16,15,15,11,16,14,9,11,2,4,0,0,0,0,0,0,0,0,0,0,0,0,0,0,0,0,0,0,0],"split_type":[0,0,0,0,0,0,0,0,0,0,0,0,0,0,0,0,0,0,0,0,0,0,0,0,0,0,0,0,0,0,0,0,0,0,0,0,0,0,0,0,0,0,0,0,0,0,0,0,0],"sum_hessian":[6.948136E3,6.194967E3,7.531691E2,9.488735E2,5.2460938E3,1.4787968E0,7.516903E2,2.4894438E2,6.999291E2,2.0524501E2,5.0408486E3,6.1060875E1,6.9062946E2,2.4761595E2,1.3284274E0,7.0372972E0,6.928918E2,3.832212E2,4.6576274E3,2.964437E0,5.8096436E1,2.3262418E2,1.4991781E1,1.6312726E2,5.297645E2,2.675093E2,1.15711876E2,9.6300616E2,3.694621E3,5.7000065E1,1.0963724E0,1.187821E0,2.3143636E2,1.0014385E1,4.9773965E0,5.0063214E0,1.5812094E2,1.7898047E2,3.5078403E2,1.2590095E0,2.662503E2,6.649794E1,4.921394E1,8.859571E2,7.7049065E1,3.4940933E3,2.005279E2,1.0516151E0,5.594845E1],"tree_param":{"num_deleted":"0","num_feature":"23","num_nodes":"49","size_leaf_vector":"1"}},{"base_weights":[2.344624E-2,-1.2127808E-1,9.9082077E-1,6.1008986E-2,-1.6921188E-1,5.211498E-1,5.7154622E-2,4.2383978E-1,-2.7721238E-1,1.0515726E0,7.782554E-2,6.731454E-1,1.9029905E-1,8.16109E-1,-3.4029853E-1,1.1731153E0,-6.5523356E-2,1.1602273E0,-3.3638585E-1,9.9770063E-1,5.189969E-1,2.989557E-1,-7.1842575E-1,-2.8275466E-1,8.636536E-1,-6.289558E-2,-4.152796E-1,-7.299998E-2,1.2853206E0,-5.2766442E-2,1.3148755E0,-9.55112E-1,4.4610938E-1,3.9484587E-2,6.274044E-2,-3.8679805E-2,3.423866E-2,1.6699938E-2,-7.932684E-2,-9.02374E-2,3.209052E-2,2.1101052E-2,-1.1725475E-1,4.4181835E-2,-7.0924655E-2,-1.6459512E-2,1.2209537E-1,-2.7671559E-3,-2.2980647E-2,-5.876574E-2,6.777578E-2,-4.651285E-2,7.2293036E-2,-6.011652E-2,5.0240576E-2,-5.498163E-2,2.9781843E-2],"categories":[],"categories_nodes":[],"categories_segments":[],"categories_sizes":[],"default_left":[0,0,0,0,0,0,0,0,0,0,0,0,0,0,0,0,0,0,0,0,0,0,0,0,0,0,0,0,0,0,0,0,0,0,0,0,0,0,0,0,0,0,0,0,0,0,0,0,0,0,0,0,0,0,0,0,0],"id":27,"left_children":[1,3,5,-1,7,9,-1,11,13,15,17,19,21,23,25,27,-1,29,31,33,35,37,39,41,43,45,47,-1,49,-1,51,53,55,-1,-1,-1,-1,-1,-1,-1,-1,-1,-1,-1,-1,-1,-1,-1,-1,-1,-1,-1,-1,-1,-1,-1,-1],"loss_changes":[9.682448E2,3.8704486E2,6.377063E1,0E0,3.7220673E2,5.2165676E1,0E0,5.200226E1,3.392828E2,3.0555496E1,5.513804E1,2.1128448E1,4.5998985E1,1.4268112E1,9.664343E1,3.043428E1,0E0,1.30443E1,4.3559166E1,6.4022675E0,6.3834312E1,2.7941948E1,7.476916E1,1.8265362E1,1.2998352E1,6.6121716E2,5.83537E1,0E0,1.7697876E1,0E0,1.082803E1,2.5468384E1,9.904958E0,0E0,0E0,0E0,0E0,0E0,0E0,0E0,0E0,0E0,0E0,0E0,0E0,0E0,0E0,0E0,0E0,0E0,0E0,0E0,0E0,0E0,0E0,0E0,0E0],"parents":[2147483647,0,0,1,1,2,2,4,4,5,5,7,7,8,8,9,9,10,10,11,11,12,12,13,13,14,14,15,15,17,17,18,18,19,19,20,20,21,21,22,22,23,23,24,24,25,25,26,26,28,28,30,30,31,31,32,32],"right_children":[2,4,6,-1,8,10,-1,12,14,16,18,20,22,24,26,28,-1,30,32,34,36,38,40,42,44,46,48,-1,50,-1,52,54,56,-1,-1,-1,-1,-1,-1,-1,-1,-1,-1,-1,-1,-1,-1,-1,-1,-1,-1,-1,-1,-1,-1,-1,-1],"split_conditions":[1.6915734E0,3.2E1,2.4384959E0,6.1008986E-2,1E1,1.3497165E0,5.7154622E-2,7E0,8.604794E-2,6.14E2,2.865E3,1.251E1,4.277E1,4.77E0,4.5E1,1.13E3,-6.5523356E-2,-3.0385834E1,2.0355577E0,9.606667E0,2.865E3,6.422E1,8.1916664E1,9.175932E0,1.6265E2,4.6E1,1.2E1,-7.299998E-2,9.724035E0,-5.2766442E-2,4.25E0,6.4E1,7.52E0,3.9484587E-2,6.274044E-2,-3.8679805E-2,3.423866E-2,1.6699938E-2,-7.932684E-2,-9.02374E-2,3.209052E-2,2.1101052E-2,-1.1725475E-1,4.4181835E-2,-7.0924655E-2,-1.6459512E-2,1.2209537E-1,-2.7671559E-3,-2.2980647E-2,-5.876574E-2,6.777578E-2,-4.651285E-2,7.2293036E-2,-6.011652E-2,5.0240576E-2,-5.498163E-2,2.9781843E-2],"split_indices":[2,16,2,0,4,3,0,4,2,15,18,12,0,19,16,14,0,9,2,22,18,19,22,12,22,11,4,0,12,0,19,16,19,0,0,0,0,0,0,0,0,0,0,0,0,0,0,0,0,0,0,0,0,0,0,0,0],"split_type":[0,0,0,0,0,0,0,0,0,0,0,0,0,0,0,0,0,0,0,0,0,0,0,0,0,0,0,0,0,0,0,0,0,0,0,0,0,0,0,0,0,0,0,0,0,0,0,0,0,0,0,0,0,0,0,0,0],"sum_hessian":[6.914047E3,6.01504E3,8.99007E2,2.0667426E2,5.8083657E3,2.2118866E2,6.7781836E2,8.943566E2,4.9140093E3,1.0007738E2,1.21111275E2,4.3166757E2,4.626891E2,2.674255E2,4.6465835E3,9.565846E1,4.4189177E0,3.3020996E1,8.809029E1,1.3724014E2,2.9442743E2,4.1387308E2,4.8815998E1,1.0885677E1,2.5653983E2,9.891017E2,3.657482E3,3.418764E0,9.22397E1,1.7745124E0,3.1246483E1,4.906977E1,3.902051E1,7.811444E1,5.9125694E1,3.3051483E1,2.6137595E2,4.071292E2,6.7438817E0,2.6959E1,2.1856997E1,8.70592E0,2.1797576E0,2.5492049E2,1.6193458E0,8.948369E2,9.426477E1,4.0133615E2,3.2561458E3,2.1216862E0,9.011801E1,1.3861064E0,2.9860376E1,4.391679E1,5.15298E0,2.8812716E0,3.613924E1],"tree_param":{"num_deleted":"0","num_feature":"23","num_nodes":"57","size_leaf_vector":"1"}},{"base_weights":[-8.977655E-3,-1.3549128E-1,1.0936309E0,6.0304172E-2,-1.873235E-1,5.9898764E-1,5.698649E-2,7.3913944E-1,-2.4303855E-1,1.0588313E0,9.97741E-2,8.185492E-1,-4.9677428E-2,-3.3909756E-1,-1.3956764E-1,1.1106577E0,1.7904425E-2,6.236614E-1,-9.1579247E-1,8.392417E-1,-4.0028098E-1,5.301462E-1,-1.002494E-1,-1.6138299E-1,-5.7534766E-1,-8.210938E-1,-9.021046E-2,2.3709431E-2,5.878262E-2,-7.298423E-2,9.1131514E-1,-8.100895E-2,4.5855682E-2,5.203561E-2,3.6604922E-2,4.504381E-2,-8.74384E-2,-9.858843E-2,4.15622E-2,-5.8012446E-3,-4.281239E-2,6.861378E-2,-3.0397464E-2,-4.485369E-2,1.0790267E-1,5.776279E-2,-5.7842447E-3,-3.961083E-2,5.4728277E-2],"categories":[],"categories_nodes":[],"categories_segments":[],